952 150
('을','Josa') 0.30394524 -0.13978267 -0.08932323 -0.26968652 0.568062 -0.12217858 -0.14711906 -0.25266242 0.2517164 -0.043590743 -0.48236552 -0.2988125 -0.58509 0.021224482 0.3606075 0.4205584 -0.15953471 -0.30412662 -0.11349501 -0.41669858 0.1409347 -0.17133231 0.590054 0.08434617 0.14489 0.12488816 0.53869414 -0.22190161 -0.26846066 -0.22121918 0.15660493 -0.28580984 -0.2555635 -0.33051562 -0.15251577 -0.12404415 0.06359901 -0.51771444 0.064296044 -0.12397528 -0.31927767 -0.23468284 0.1776899 0.099939264 0.4562929 0.17200059 0.75219494 0.08327486 0.36504683 -0.3277736 0.09820902 0.04137595 0.56582123 -0.04427587 -0.28522617 -0.46001408 -0.24193908 0.23568752 -0.22221082 0.5141943 -0.1401993 -0.5803414 -0.09979565 0.54122204 0.23290934 0.10466107 0.17364949 -0.2828987 0.67694986 -0.32800052 0.12755911 0.2294201 -0.39149088 -0.58438134 0.32926005 0.537127 0.17097585 0.3297692 -0.03737299 0.014529781 0.09417962 0.29221773 -0.3917611 0.41606712 -0.5069594 -0.33041176 -0.4467404 0.17992467 -0.10818855 0.10569197 -0.23138452 0.26439625 0.24908882 0.077238925 0.21309374 0.24509607 0.53128743 0.4247393 0.32621604 0.386323 -0.272757 0.06282051 0.23763847 0.25594288 0.14789155 0.1995034 0.31109175 -0.30626228 -0.18949856 0.34321457 0.39831743 0.3705534 0.040602997 -0.5381015 0.4063887 0.32594872 -0.35105178 -0.3721683 -0.27303427 0.46111715 -0.12373429 -0.10670969 -0.3181433 -0.27966666 -0.3940504 -0.23182411 0.15060478 -0.0075460766 -0.08427725 0.4648543 -0.23911199 -0.018778918 -0.43040404 -0.004357179 0.059550915 -0.49037325 0.46413115 0.1685506 -0.1034119 0.0383607 -0.2858613 0.20304628 -0.28458142 -0.06766615 -0.09403688 0.32551187 0.6916271 0.14889757 -0.62737125 -0.012522425
('에','Josa') -0.027070576 -0.0017905701 -0.44415873 0.07408074 0.16346718 -0.3081759 0.37697363 0.1793697 0.62424845 -0.22937849 -0.1456425 0.010249358 -0.43536562 0.047005847 0.5480445 -0.2617876 -0.3160657 0.19323055 0.5184572 0.006813203 -0.019892905 -0.8584737 0.22089177 0.1592536 -0.16399997 -0.32391626 0.025364438 0.08965232 -0.27971038 0.105155736 0.08170849 -0.6210929 -0.022097616 0.19764626 -0.11822304 0.13585192 0.5352758 0.06694264 -0.09735147 0.21149302 0.4548766 0.11706585 -0.57134306 0.19898 0.06393552 0.25558472 -0.27358386 -0.02162048 0.06330488 0.7154821 -0.3082581 0.6333373 -0.0984726 0.29226038 0.24895042 0.2806127 -0.24540122 0.29388025 -0.27600297 -0.46069232 0.1743143 -0.1845213 0.29699913 0.0517019 -0.093452506 0.36395824 -0.247554 0.20323195 0.19454618 0.05867969 -0.44717965 -0.05066403 -0.28313315 -0.120723955 0.35925508 -0.23138931 -0.51649535 -0.13432094 0.13965076 0.46915 0.32013032 -0.114674814 0.1579327 -0.3153173 -0.1504739 0.17295009 0.19665223 -0.4853457 -0.29745698 -0.16517004 -0.26240295 0.14731422 0.25849134 0.101193845 -0.08037449 0.10187055 0.27836832 -0.4731843 -0.49107057 0.28525576 0.2615573 0.3899144 -0.20494561 0.5315578 0.05082946 -0.20873265 -0.3375909 0.11365719 0.046751052 -0.5665136 -0.18095766 -0.23330069 -0.5004372 -0.13524453 0.02423451 0.23552859 -0.2933824 -0.7003894 0.3660267 -0.41520348 -0.33846453 -0.02233482 -0.2735511 0.035658836 0.20982978 0.46756628 -0.5277641 -0.27087933 -0.033961657 0.3957643 0.51062036 0.15641922 -0.64916486 0.27664116 -0.51200104 0.17337072 -0.084393345 -0.054219592 0.14492144 0.20397568 -0.13838278 -0.12697849 0.5888858 0.12519789 -0.22416198 0.091025375 -0.1944247 -0.25768095 0.36592612 -0.048034985
('이','Josa') -0.4691938 0.41188848 -0.79716474 0.2735287 0.34065738 -0.050799955 0.5929735 0.43939134 -0.5036182 -0.53163344 -0.5359008 0.045849495 -0.7837221 0.46628642 0.5899474 0.19758818 -0.40964365 -0.13131873 0.029206567 0.06358661 0.36831936 -0.61168677 0.5015263 -0.23061833 0.2999652 0.15024218 0.85511744 -0.5692388 -0.66748667 0.23442285 -0.1666457 -0.3340331 -0.21792942 -0.05677331 -0.4554601 0.25950232 0.013320124 0.023928372 -0.65413445 0.770048 0.35399055 0.4006215 0.4691903 0.33111808 -0.083468504 -0.49029297 -0.3804983 -0.3371912 0.33322656 0.01712407 0.56977624 0.25726232 -0.68213344 -0.46553695 0.0173647 -0.3629695 0.37795597 0.2100519 -0.022859508 0.99927944 0.6127685 0.25928098 0.793815 0.095549 -0.21134475 0.6082694 0.46246335 -0.54033047 0.5030008 0.081820495 -0.04917215 -0.48897272 -0.18574993 0.6869041 0.6041881 -0.18045561 -0.7563141 -0.609075 0.40244424 -0.32133567 0.14577185 0.51930827 0.19183277 -0.092394225 0.3847479 0.3495068 -0.7503665 0.3802994 -0.5662703 -0.20172366 0.53666246 -0.3640658 0.26739243 0.3880181 -0.2066855 0.29140365 0.70688033 -0.06912408 -0.40216163 0.15562999 0.5564434 -0.3058678 -0.661837 -0.53209823 -0.538817 -0.2370302 0.3683072 -0.44261464 0.25603527 0.13698012 -0.23659614 0.41042063 0.35131907 -0.041862886 -0.3744115 -0.3497784 -0.82270616 -0.54673225 0.26752892 -0.8573969 0.027430713 -0.042218953 -0.23494141 -0.4126567 -0.10316119 -0.8084082 0.41002187 -0.19623218 0.5596499 0.7968914 0.90593755 -0.44907045 -0.71265286 0.8869606 -0.19313237 0.041846238 0.030485585 0.39178872 -0.027767023 0.7335381 0.1419084 -0.7260358 -0.53660643 -0.22447777 -0.88210315 -0.38535002 -0.6106903 0.36803916 0.684866 0.5444764
('를','Josa') 0.9086629 -0.3839277 0.5654941 -0.42221478 0.446766 0.59696007 0.34414735 0.46399003 0.8066029 -0.90407014 -0.059321597 0.35994118 0.27767 -0.45062095 -0.5573023 -0.67643076 -0.02973003 0.8179138 -0.43011668 -0.06596502 0.13451585 0.103528075 -0.39480555 -0.29061267 -0.34250692 -0.3160656 0.508026 0.048743367 -0.5429598 -0.62967366 -0.2939468 0.69957834 0.6474157 -0.7018794 -0.4728334 0.491356 0.59595907 0.021766407 -0.49245954 0.76968294 0.19738455 -0.10689949 0.11443315 0.2757965 0.7956828 -0.48168215 -0.5467402 -0.19178277 0.07687418 0.44191453 0.37046108 -0.37737852 0.15157342 0.7220507 -0.11882993 0.050377738 0.4668435 -0.41711375 -0.5085002 0.7119953 0.46819314 -0.8203631 -0.54175866 0.41340375 -0.07050338 0.89813125 -0.16196275 -0.49414328 0.72024614 -0.7274787 -0.23928364 -0.07440859 -0.58177316 0.7171628 0.029864347 0.013016062 0.34139848 -0.24716194 0.17173028 0.7426109 -0.030923707 -0.46702075 0.107078485 -0.27871946 -0.47308367 0.039536655 -0.026320374 -0.71389574 -0.34429094 -0.034519732 -0.3921012 -0.3816015 0.98466897 0.207484 0.065819666 0.069976114 0.34127668 0.034649298 0.42418343 0.08461905 0.115761235 0.525501 0.57625365 0.38911104 -0.8168041 0.39397135 0.4282637 -0.27531335 0.2543082 0.01495535 0.30807063 -0.44554335 0.22751863 -0.035188578 -0.28593335 0.8212744 -0.7449361 0.35995746 0.6412244 0.5874177 0.21720271 -0.08807784 0.5104801 -0.65096986 0.099104114 0.13762541 0.05352114 -0.34560883 -0.4366755 -0.5137593 0.19346198 0.44031668 -0.41734833 -0.78639925 -0.16092207 0.281337 0.6310144 0.030733915 -0.13842818 0.7179398 0.04721988 0.53690475 0.3409217 0.2838817 0.24657042 0.880995 0.64843845 0.73949754 -0.7311832 0.53097534
('가','Josa') -0.35554627 -0.9206939 0.63748115 -0.81446195 0.46177146 0.7221503 0.6574445 -0.39334878 -0.8720137 -0.79762745 -0.40292573 -0.38434017 0.19203395 -0.37019703 0.6385738 -0.07779334 -0.48078108 0.6441798 -0.8591387 0.35012951 -0.12338134 0.30358535 0.022914257 -0.2939529 -0.2719534 -0.3114987 -0.95471823 0.6101739 -0.49609205 0.32937896 -0.2813843 -0.44479668 -0.39563093 0.26616833 -0.78366184 0.08922132 -0.22114362 -0.49487668 0.5207168 -0.7071674 -0.03425497 -0.4997176 0.3534683 0.29410374 0.35503024 0.44239154 0.30481893 0.23381147 0.20343553 0.052334733 -0.3453464 0.12112931 0.542115 -0.54996353 0.6275856 -0.60042304 -0.63682294 -0.36513546 -0.15111785 -0.5906035 0.46522427 -0.09095881 0.20993643 -0.3833771 -0.27438074 0.56556255 0.68735456 0.40201393 0.09060454 0.21425144 -0.32272857 -0.33706966 0.7518654 -0.18924028 -0.0031430286 0.7245948 0.3938213 -0.0073286863 0.13179392 0.7918561 -0.67577493 0.5986953 -0.5647946 -0.34776974 0.29208452 -0.010094996 -0.041853637 -0.35609302 -0.1496405 0.7196885 -0.48914054 0.5751262 -0.13377175 0.43694103 0.41850856 0.38495278 -0.655362 -0.018652681 0.07929009 -0.04923808 -0.98430955 -0.0085583525 -0.65301037 0.34766468 0.29013264 -0.17288308 0.7062373 0.3355123 -0.02460478 -0.27854112 0.5521285 -0.81598806 -0.42084673 0.44479236 0.10352185 -0.6210634 0.28972444 -0.32163793 0.19650386 0.04694282 0.3890569 0.17251836 0.16212805 0.12330848 -0.56059355 0.68495005 0.34790233 -0.18589279 -0.23978801 -0.34835526 -0.05746187 -0.4638399 0.44453773 -0.23303002 -0.6545374 -0.15676922 -0.34585533 0.00971879 0.4084549 0.26681423 0.6124007 -0.018385429 0.5092039 -0.47794443 -0.044246126 0.35060203 0.28395656 -0.2006391 0.029191244 -0.37761477
('의','Josa') -0.46380597 -0.19575436 -0.33063042 -0.031213377 -0.09535894 0.56772673 0.60852873 -0.5852345 0.43521637 0.6587814 0.68063563 -0.2855697 -0.273898 0.31538478 -0.18492705 0.42217243 -0.6489157 0.74582815 0.6913322 -0.6638278 0.51661736 -0.91908914 0.26217306 0.25270593 0.04690698 0.11179036 -0.4887083 -0.74653983 -0.49885082 0.40316573 -0.7266525 -0.3459985 0.41355368 -0.014749436 -0.60458654 -0.30897486 0.46231785 0.20086291 -0.83607686 0.5908272 -0.14326143 -0.1470245 0.7380002 0.29345196 0.17905292 0.40509385 0.78488564 0.6612293 -0.46127996 -0.036945906 0.5728892 -0.3376191 0.16629471 1.0748159 0.23210436 -0.038558163 0.5898174 -0.13889526 0.36693564 0.2119363 -0.42895442 -0.47260103 -0.3756935 0.15418352 0.20543693 0.40660757 0.35756868 -0.08418318 -0.45271972 0.6549518 -0.24860808 0.5540914 -0.11779552 0.5481401 -0.30692232 -0.67716074 0.123671725 0.008209637 -0.70625776 0.59104025 -0.6331339 0.46331394 0.6641254 -0.25445113 -0.26573187 -0.49125135 0.69017696 -0.38479075 -0.30007777 -0.043045156 -0.5225975 0.4479806 0.70251703 -0.35585216 -0.7900836 -0.06565216 -0.73620397 0.73103875 0.86057156 -0.23981115 0.5330525 0.59078205 -0.25706095 0.7543535 0.04146458 0.2950887 0.642521 -0.15086086 -0.0012871916 -0.038308848 0.21395728 0.5440697 -0.8546814 0.1927973 0.6340917 -0.118480705 0.0647213 -0.60056114 0.74669504 0.36421496 -0.41396704 0.7734466 0.33074853 0.5125594 -0.26216337 -0.5631081 -0.6500582 0.6479413 0.0920892 -0.4622783 0.59167856 0.29783005 -0.22511402 -0.10140563 -0.21531832 0.027744517 -0.6167787 0.4997403 -0.24136159 -0.34672764 -0.5123001 -0.25727874 -0.673186 -0.3070734 0.7544062 -0.9378623 -0.0019220414 0.04799296 0.21581429 0.083528034
('으로','Josa') -0.46508503 0.56042445 -0.17465104 0.52705 0.35040233 0.2150777 -0.78017694 0.21773054 -0.049077578 -0.021822486 -0.064606674 0.5934662 -0.6712827 -0.42728478 -0.5146002 0.64586484 -0.8165824 0.7601902 -0.7013239 0.34331033 -0.64788544 -0.47094142 0.79067254 -0.1223979 -0.042731512 -0.7182853 0.27760318 -0.3031479 0.538017 0.7589978 0.24554586 0.48703152 0.0039044144 0.21159782 0.53536075 0.6025558 0.78993547 -0.68297404 -0.38178858 0.44112375 -0.38680223 -0.81660056 -0.06752727 0.15140161 0.3589804 -0.57362944 -0.6181409 -0.6425925 -0.65547657 0.96069217 -0.49862447 -0.17218412 -0.31493783 0.904002 -0.30981076 -0.8419993 -0.21299513 0.24260485 0.29611984 0.17971918 0.6079121 0.27207118 0.066156626 0.36008632 -0.011874673 -0.60351646 0.743482 -0.8724145 0.8657348 0.26869994 0.54792404 -0.09009975 0.078840196 -0.3997376 0.19346252 0.73937947 0.37065703 -0.22167376 0.26236573 -0.34387657 0.8492056 0.6357588 -0.60409814 -0.7106481 -0.4938951 -0.2499674 0.53310657 -0.54292357 0.14102744 -0.036338806 -0.4760501 0.25551367 0.27812508 0.8184402 0.10800545 0.3144876 -0.09432076 -0.8597459 -0.07241402 0.2598448 0.42082918 0.4372432 0.32353967 -0.6401666 -0.72587717 0.44071633 -0.39312157 -0.2642495 0.39102888 0.893515 0.9864057 -0.49577278 0.43638375 -0.08372928 -0.80791104 -0.10732851 0.014507572 0.59631354 0.5657951 0.17318814 -0.77185464 -0.22432649 0.51386344 0.6748825 -0.8022238 0.22061 0.24566261 0.6568002 0.045659147 -0.2829682 0.048054773 -0.662818 0.8386075 0.64929014 0.055884264 -0.07391003 0.18895179 -0.05997884 0.6939387 -0.12660536 0.84223187 -0.5836615 0.09077987 -0.32600835 -0.3044236 0.27190182 0.03122842 -0.078665935 -0.19919825 -0.2953069
('은','Josa') -0.06376097 0.92384326 -0.23014371 -0.692875 -0.33956057 -0.8025248 -0.28981966 -0.058843598 -0.30874252 0.45184666 -0.6274141 -0.0043083457 0.50308025 -0.17301136 0.50394636 0.1150595 -0.45875385 0.41426495 0.20882885 0.3119406 -0.43960485 -0.14934036 0.14056224 -0.47285286 0.53833604 0.4092097 0.27242973 0.7084284 -0.12223686 0.48287296 -0.32397527 0.27410206 0.12375001 -0.4076771 -0.14803609 0.6794233 -0.13860194 0.35321668 0.09767516 -0.42476368 0.5098662 0.24016476 -0.0998455 0.88821787 0.8166278 -0.47986665 0.32287923 0.32377917 -0.47608602 0.19378604 0.36287674 0.9122673 -0.5903703 0.4823285 0.87029046 0.36342162 -0.5096962 0.7875944 -0.67144334 0.43930405 0.22617178 -0.15558884 0.636496 -0.7406372 -0.41457626 0.21246961 0.8621917 0.38955748 0.010110117 -0.6244295 0.042079203 -0.6413238 0.7106516 0.41443756 0.22499076 0.2932447 -0.64447576 0.5732347 -0.7135656 0.38047478 0.5047902 -0.19650723 -0.18204182 0.15079401 -0.12682281 0.48344937 0.008577642 -0.56885076 0.50922024 -0.285938 0.70909774 0.7075555 0.2750846 0.44677973 0.11100775 0.7492024 0.4256063 0.14359635 -0.88088363 -0.7643396 -0.25352165 -0.40281054 -0.4031486 0.48589587 0.5471538 -0.41011032 0.4380524 -0.13558733 -0.13569033 0.57457125 -0.471725 -0.7612409 -0.8080823 0.656069 -0.40270203 0.8515006 -0.65936536 0.2276107 0.025773572 0.37083972 0.38090804 -0.6794343 0.7409792 0.78996193 -0.67967117 -0.6086094 -0.118412755 0.4604838 -0.69816476 0.45310056 0.20647815 0.29862252 -0.3387124 -0.2304596 0.4443781 0.3019947 -0.24564321 0.82464683 0.27214667 -0.25817183 0.34474853 -0.48367208 -0.18289073 -0.07973311 0.15926081 0.026693242 0.21972175 -0.15095408 0.2467941 -0.27116376
('는','Josa') 0.4652695 0.32650462 0.13173495 -0.27131125 -0.08611793 0.49606043 0.33989212 0.42304358 0.024245178 0.08205862 0.54333687 -0.22645743 -0.23797627 -0.66671157 -0.6471276 0.9309043 -0.7143706 -0.037850793 -0.5884537 -0.6826787 0.16674556 0.31230915 -0.5650637 -0.4788502 0.62665915 -0.14361398 0.2358692 -0.93516517 0.45274127 -0.4547353 -0.178324 0.4165695 -1.0263369 0.058077987 0.5057543 -0.47061986 0.16577093 0.5015972 -0.15907241 0.4394239 0.0030919053 0.69388795 -0.2216502 0.7131219 0.95246387 0.68066484 -0.1707835 -0.74039674 0.6195031 -0.14888832 0.31984544 -0.7597366 0.7648959 0.012392306 -0.6120547 0.60989 -0.15865429 0.37384704 -0.3489325 -0.28940004 0.58443296 0.1236161 -0.6012949 0.2765252 -0.25365075 -0.3861145 0.6159181 -0.40066695 0.43319803 0.29870173 -0.2691907 -0.12222658 0.33954057 -0.13773915 0.6213008 0.1327513 -0.15377949 -0.2560815 0.25343722 -0.18642257 -0.6870193 0.14965929 -0.8031481 0.23810083 -0.09472149 0.5342139 0.26657513 -0.07019538 -0.58781576 -0.45546833 -0.3692147 -0.6158377 0.69448024 0.007323893 0.0971406 -0.043773867 -0.041609965 -0.5102407 0.3103371 0.010382581 0.5238303 0.6488655 0.3047005 0.44732097 0.19145785 0.11686859 0.26403588 -0.2851989 0.5501471 -0.66015023 -0.2076144 -0.39015543 0.82386035 0.26017687 -0.6235155 0.74220425 0.092810825 -0.7694829 0.23948085 0.42764693 -0.21891962 -0.09175015 -0.058254294 -0.5851703 0.22709274 0.65643305 -0.7628603 0.18644044 -0.011642583 0.16548762 0.011468381 -0.254666 0.46543506 0.52669406 -0.40091258 -0.29492736 0.6269054 0.68853384 -0.59049606 -0.41715294 0.21973966 -0.6613137 -0.10596702 0.67243546 0.34489942 -0.64511776 0.5254771 -0.15868641 0.12852067 -0.32913134
('에서','Josa') 0.61705077 -0.46764177 -0.12757087 -0.96128094 0.17811455 -0.5821596 -0.8056125 -0.27394673 -0.65363854 0.18699108 -0.7607266 -0.8155471 0.05773996 0.7399417 -0.024424832 -0.7970227 -0.8561696 0.49297887 0.3870432 -0.88747877 0.46375835 -0.13847315 0.041110698 -0.66248065 -0.9260258 0.6046741 0.42974475 0.14265071 -1.0721424 0.57168686 -1.1160496 0.6350709 0.20929602 -0.7377161 -0.33870387 0.68729365 0.7364053 -1.0900953 -0.15713206 -0.29049107 0.46336326 -0.89210695 0.13459939 0.78233534 -0.6483421 -0.71070075 0.4852584 0.08697235 0.5671438 0.16888861 -0.20627517 -0.5381903 -0.7651631 0.33682168 -0.88767433 0.4879831 -0.08730434 0.19064006 0.6934072 -0.18182269 -0.514338 -0.5663335 -0.8811282 0.32549495 -0.67727524 -0.24559963 0.5296698 -0.7156455 -0.4485133 0.3124521 -0.6482407 -0.45063904 0.20556591 -0.6274822 0.9303497 0.14442155 -0.11129189 0.39448297 -0.9518628 -0.42101967 0.59729517 -0.30989176 -0.878936 -1.0305378 -0.5659289 -0.7768809 0.19543481 -0.11178043 -0.55377334 0.42539355 -0.59540105 -0.6899651 -0.724806 -0.23790525 0.9503313 0.40387484 0.11144003 -0.7403626 0.039113127 0.826677 0.54226846 -0.061125293 -0.30670783 -0.14489579 -0.10774336 0.14220844 0.6637792 0.5090346 0.5927292 0.47909448 -0.49556985 0.8343805 0.10150605 -0.4337505 -0.9007859 0.007302318 -1.2661154 -0.65096575 0.7942439 0.848987 -0.65950555 -0.36613882 1.0373526 -0.4122217 0.08518186 -0.21075208 0.68699354 0.631985 -0.545992 -0.019093946 -0.10647085 -0.75679845 0.7912776 0.24400209 -0.66750294 0.42474502 -0.70428693 -0.5085746 -0.34355283 -0.48267683 -0.894993 -0.49163795 0.101588294 -1.0231009 0.5204713 0.8346065 -0.10709349 0.50135684 0.41053927 -0.41536123
('로','Josa') 0.49026558 0.09505055 -0.11684304 -0.84127986 -0.21020055 -0.7257007 -0.06766793 -0.4503486 0.7522408 0.026562128 0.53918767 -0.828271 0.14296056 -0.5107674 0.15072992 -0.5595484 0.10900667 0.6284955 -0.07865904 -0.5522544 0.4602021 0.24218437 0.41778952 0.45146072 -0.7989359 -0.5822323 0.8956002 -0.38933212 -0.8777952 0.51504326 -0.7355572 0.2714454 -0.20343262 0.33870792 -0.44328794 0.50420964 -0.68510616 -0.6527172 0.553216 0.27229244 0.46634367 0.4495057 0.564527 0.11917637 0.050155703 0.44724303 -0.07443157 -0.24382831 0.7118037 -0.4598272 -0.06694204 0.65591156 0.7383841 -0.18613014 0.32044387 0.20114416 -1.0047679 0.16139369 0.0067948448 0.20532113 0.5636359 -0.28756693 -0.36192775 0.7281747 0.64008945 0.37014058 0.8603563 -0.21025404 -0.034203764 -0.3196168 0.15393405 -0.5969241 0.43620524 0.5900321 -0.058149572 -0.10066501 -1.1801031 0.76250106 0.011792496 0.17159058 0.8617794 0.121049166 -0.21277364 0.66241354 0.3774252 -0.08350305 -0.71692324 -1.155088 -0.8603315 0.24187706 0.17713965 -0.9475889 0.5493976 0.020790922 0.50014347 0.90856403 0.660535 -0.41921368 -0.1885427 -0.5441772 -0.061375566 1.1322266 0.6915225 0.31549174 0.23049214 0.20056939 0.049318213 0.0077098464 0.74407816 -0.07304293 1.051426 0.28695852 -0.10572638 -0.6615326 -0.30759183 -0.30781147 -0.801001 -0.8609137 -0.5975497 -0.54327434 -0.25455484 1.029228 0.81490177 -0.4048507 -0.4194068 0.17625311 0.097234346 -0.30007112 0.48327354 0.21309797 -0.6453582 0.7545856 -0.45049113 -0.0005356921 0.47888213 -0.664487 1.0085785 0.4946681 0.55343837 -0.25132376 -0.16405416 -0.5161407 -0.9882001 0.20987447 0.7246476 0.367838 0.54632527 0.3253152 0.091407016 0.5043857
('때','Noun') 0.653634 0.32701236 0.5001328 0.118184544 -0.15700486 -0.23978369 0.8020839 -0.6475932 -0.6273647 -0.67673075 -1.1348042 0.82000303 -0.25433788 0.7092008 -0.2477783 0.5694608 -0.49807736 -0.74136174 0.61934036 0.71887916 0.4520436 -0.65505236 0.3516747 -0.32255968 0.58825403 0.7791349 1.0788097 -0.3486601 -0.84346616 -0.2819049 -0.034434013 0.12910375 0.042613514 -0.0955405 -0.51911294 -0.69032973 -0.15038209 -0.8928185 0.32467738 -0.17490152 0.19434066 -0.05407996 -0.8786318 0.1662473 -0.4332731 0.6937411 0.36296916 -0.19086 -0.2278058 0.025215913 1.0456966 0.63351905 0.35904038 0.48751682 0.3625176 -0.14004277 -0.48883387 0.88424945 0.6059272 -0.41901624 -0.32077855 0.20995517 0.38996968 -0.42288288 -0.66997516 0.31433403 -0.5439183 0.26120088 -0.49373364 0.09040294 0.26329917 0.25369555 -0.18917568 0.06575123 0.016454887 -0.41853416 0.51430416 -0.5655546 -0.02894111 -0.58194715 0.54234445 0.34145916 -0.09757095 0.53862935 -0.9256663 0.9444844 0.588834 0.5361613 -0.2279522 0.86589885 -1.3354902 -0.14138569 0.9025239 0.28503448 0.46180502 0.9498825 -0.7380251 -0.25942272 -0.10298153 -0.45667562 0.11332762 -0.4044057 0.52891237 0.9485838 0.33179176 0.56461763 -0.09466676 -0.107834324 0.83270997 0.53731084 0.02705789 -0.80017155 0.63735396 0.3317456 -0.96147543 0.120743744 -0.5242501 -0.43515208 -0.734233 0.3123351 -0.77456915 0.22929576 0.7867075 -0.23282003 -1.0287933 -0.9237849 0.36374786 0.29068956 0.052892856 -0.30431533 0.9008424 -0.33708405 -0.35199907 -0.39553654 -0.52795374 0.34430623 -0.05032184 -0.17449318 -0.2418778 1.0517637 -0.5838409 -0.71569455 0.18323696 0.6456445 0.8126492 0.38715115 -0.26684675 -1.1369114 0.70602477 -0.06847139
('것','Noun') 0.12372678 0.5508837 -1.0515186 0.65156466 0.8083366 -0.602219 -0.16122624 -0.048916105 0.4607305 0.7096271 0.7679102 -0.9149235 0.4083913 0.64642406 0.7066064 -0.25557286 -1.0429997 -0.7965827 0.4548186 -0.20769282 0.4012305 0.30769953 0.52222747 -0.26665783 -0.2819175 -0.7362218 0.41936973 0.7468065 0.34763363 -0.054502744 -0.45701453 -0.7656818 -0.40708762 0.69910663 0.31081054 0.41610318 0.89002806 0.41795573 -0.30426127 -0.5531676 -0.33580083 0.5454569 -0.70450455 0.08654004 -0.3441137 -0.68589306 0.326346 -0.5459128 0.5813598 -0.60751706 0.46135303 0.15465546 -0.70131004 -0.14538696 -0.52425826 -0.99662817 -0.32033396 -0.37129134 -0.44013223 0.9619861 0.12741122 0.73225194 0.5533649 -0.81303674 -0.4197907 0.8822159 0.6931195 0.55785406 0.40789884 0.5326641 -0.70897555 0.34215134 -0.11573553 -0.7410922 -0.7087133 0.024679802 -0.15739404 0.6505981 -0.667608 -0.29057577 -0.6187525 -0.50519335 -0.15705334 -0.53633124 -1.0404412 -0.5316367 0.3287166 -0.8114919 -0.23963036 0.14308971 -0.89778954 0.7643559 1.0753387 0.67936456 -0.46601284 0.94197565 -0.7741197 -0.08312663 -0.7293898 0.061999507 -0.5807686 0.021913547 -0.8679259 -0.8645281 -0.21900932 -0.06793077 -0.055155028 0.4682072 -0.65802586 -0.35507792 0.6663097 -0.37386745 -0.056379978 0.24592689 -0.053065326 0.77047175 -0.4987326 -0.86736995 0.84250754 0.5663041 -0.043231044 0.2679508 0.5243873 -0.13741742 -0.6970253 -0.45579103 -0.37144434 -0.3989022 0.28991103 0.85653746 -0.1127352 0.6029949 0.23744917 0.25853986 -0.32821584 -0.37313977 0.03804817 -0.02621543 -0.69568425 0.70837003 0.23821825 0.20365079 -1.0000862 -0.4942703 -0.5989415 -0.52238846 0.12247502 -0.9640009 1.0413774 -0.10656631
('여자','Noun') -0.4389308 0.37618515 -0.44133994 -0.069692455 -0.73333013 0.83145636 0.663488 0.84615403 0.17712092 0.08322697 -0.4220936 -0.79324037 -0.8551552 0.60271525 0.11278458 -0.33260477 0.11408984 0.106060684 0.6613692 -0.43578625 -0.699377 0.58241785 0.115174375 -0.2517679 -0.59571046 0.18003634 0.3571772 0.2836976 -0.10691442 0.6370253 0.7045462 -0.7927893 0.20302637 -0.20095673 -0.5743197 -0.42188525 -0.031080475 -0.08826144 0.57937163 -0.13088211 -0.7786405 -0.941092 0.6856825 0.8885485 0.6776789 0.29264557 0.07342815 -0.21820053 0.6033735 0.5890585 0.07795887 -0.34156305 -0.9037935 -0.3058308 0.0036384927 -0.52929825 0.34742126 0.36352473 0.7122092 0.4310034 -0.22437578 -0.8176453 -0.31383085 0.039826706 -0.2541738 0.5070653 0.17055483 -0.11768054 0.6389172 0.5819863 1.0460588 -0.8296469 0.0070104166 -0.9066343 0.45450827 0.8560701 0.88808495 -0.77889234 0.81195676 -0.5089642 -0.2400623 0.3361493 -0.51430786 -0.020158233 0.9463142 0.34677124 0.22244789 0.9741229 -0.8250315 0.6070047 -0.71611905 0.35250765 0.12339604 0.81684536 0.6453104 0.64921385 -0.7043116 0.53455865 0.24974653 -0.8398521 -0.93652636 -0.39636633 -0.05554983 0.6229711 -0.3958133 -0.6633184 -0.61448777 -0.112503015 -0.5221879 0.13918881 0.83153176 -0.54943717 -0.008826161 0.00503504 -0.8356549 -0.25599146 -0.92199665 0.034358453 0.89262563 0.71633875 0.56061554 0.63517797 -0.24881019 0.75260645 0.23100102 0.34039772 0.23184541 0.19447874 0.25655589 0.12328168 -0.8138417 -0.7787715 0.7852046 0.4168031 0.7349287 -0.6413373 -0.7525982 0.063513875 -1.0468477 0.526734 0.71914613 -0.2937757 -0.15057282 -0.0011604694 -0.5098291 0.28430057 0.7569181 -0.39124483 -0.2626752 0.8317831
('사람','Noun') 0.36349946 0.51131284 0.15075901 -0.7862371 1.1001484 0.804916 0.11583158 0.7094018 0.47941613 -0.7429524 -0.5092883 0.35922953 -0.16701663 0.87220013 -0.055775452 -0.17822604 -0.3939391 -0.2929555 -0.019486379 -0.17011344 -0.15023495 -0.583034 0.7486986 0.14394487 0.23333219 -0.06264106 -0.13954847 0.38931593 0.35110375 0.07527985 0.24223596 -1.0886463 -0.13634647 -0.08262772 -0.25756752 -0.30934438 -0.029445099 0.49194205 0.1927245 -0.14600122 -0.03723294 0.26143596 -0.26076916 0.690791 0.29169884 -0.75881535 -0.32648942 0.14657311 0.1641946 0.8531441 0.24857596 -0.18649995 1.0071507 0.33983475 -0.3601775 -0.055919953 -0.05850202 -0.20469113 -0.00035338648 -0.20947522 0.7990655 -0.2775042 -0.34181747 -0.80564994 -0.57661206 0.04156798 -0.40033075 0.1964277 0.541266 -0.17360349 -0.66755533 -0.62618273 -0.61255914 -0.23310256 -0.34877917 -0.43864658 -0.20061688 0.17763175 -0.38767996 -0.23042999 0.23948093 0.6099382 -0.6945253 -0.50186473 -0.31045508 -0.8354368 -0.07333881 0.42539698 0.39009678 0.70274365 -0.6439532 -0.08187652 0.9495673 0.5609171 -0.0075061945 0.33801356 0.62318057 0.53186065 -0.7139846 -0.34034523 0.43437934 0.022866495 0.11930169 0.90033954 0.68997675 0.7012409 0.24124111 -0.49581468 -0.2549046 0.20451449 -0.031210564 -0.28544545 -0.7324757 0.0020010024 -0.45230326 0.44703978 -1.198273 0.18770902 0.7719043 0.5284476 -0.5492224 0.3379244 0.055717275 0.48884478 0.661218 -0.17408846 -0.48206717 -0.29738772 0.61984885 0.58111393 -0.27201313 -0.67974204 0.1566171 -0.36472222 0.35367396 0.72754353 0.10640125 -0.31754798 -0.24891616 -0.1182464 -0.32652766 -0.15223722 -0.6123549 0.93131465 -0.739691 -0.644771 -0.30305704 0.27024254 0.9524413 0.6765828
('삼촌','Noun') 0.70762116 0.6713139 0.075579986 0.43353394 1.062897 -0.065337844 0.056736395 -0.04709686 -0.6344112 -0.8796638 -0.98567957 -0.7807205 -0.37622827 -0.33684897 1.0172151 -0.5685095 -0.39414456 0.22649375 0.07023712 0.443734 0.23310018 0.82025886 -0.66314274 0.47607887 -0.52506536 -0.73587376 0.66808814 -0.43135327 0.41053838 -0.74889636 -0.07239112 -0.3734315 -1.0386928 0.8201509 -0.99613786 0.17949542 1.0870937 0.5106477 -0.05587824 -0.3541828 -0.87131274 -0.20759094 -0.15382683 0.43569928 0.34465492 -0.37915993 0.20789875 0.84407246 0.46723607 -0.092579335 -0.42090946 -0.03726542 0.65285397 0.86178434 0.026185466 -0.8617385 0.8446164 0.8952813 0.5493346 -0.23403212 -0.24491516 -0.83128434 0.636312 0.52356434 -0.66025436 0.8020787 0.8869321 -0.96044457 0.40178314 0.83083975 -0.32960993 -0.62213326 -1.0429446 0.10833342 0.26941964 -0.81739986 -0.8074673 -0.5818107 -0.7267428 0.6044883 0.99989945 0.84595835 -0.5325035 0.34837964 0.26267278 0.29479986 0.5102686 -0.28707185 -0.59535056 -0.15924953 0.6075481 -0.43117923 -0.6896211 -0.9518849 0.8277374 0.23667474 -0.31482476 0.35177392 0.73993397 -0.2911601 -0.6780107 -0.123086855 -0.947701 0.084696576 0.32101128 -0.24178618 0.24826053 -0.20102048 0.64234334 0.9601929 -0.15399659 0.65449524 -0.79531735 0.039770037 -0.04947439 0.7984937 -1.0866935 0.26179686 -0.11318632 -0.86301255 -0.24783304 -0.48800284 0.44799516 -0.22220746 -0.2615981 0.042310502 -0.691425 -0.67250776 -0.28571832 -0.29844284 0.12433916 0.66906327 -0.10587883 -0.9067728 0.4843824 -0.5698444 0.14970267 -0.063658416 -0.8288846 0.91745156 0.061919603 -0.5948952 -0.015010625 0.7032455 0.42255268 -0.38684833 0.24094576 0.31354374 0.43937212 0.4890193
('그녀','Noun') 0.60506487 -0.9090873 -0.50243473 0.6221183 0.5444107 0.45442668 -0.10005336 -0.35017782 -0.60710794 0.6382428 -0.64004266 0.68383014 0.6403588 -0.36692193 1.0663004 0.11592722 0.34862527 0.9487082 0.0969646 0.3745887 0.9347054 -1.0352088 0.7093827 -0.40306014 -0.04746478 0.8396788 0.9811387 -0.6992442 -0.004061534 0.5507206 -0.61843663 0.4542385 0.46241668 -0.7852092 0.45989835 0.5610104 -0.6035992 -0.041547827 0.7260993 0.9445446 0.81793964 0.96776575 -0.89873534 0.9345806 -0.1565775 0.71978694 -0.21786636 -0.017999634 -0.43337068 0.025464091 -0.106764294 -0.732129 -0.32414508 0.2143948 0.23037833 0.36841205 0.46369618 0.31781015 -0.67865765 0.19860311 0.92934036 0.70465004 -0.45017198 0.32850772 0.8941477 -0.6053085 -0.15208435 0.21255991 0.6024253 -0.13051514 0.04780065 0.7757965 -0.45318452 -0.72746146 -0.556311 0.10404202 -0.5075061 -0.4139462 0.20620133 0.41761303 -0.35471523 0.106258534 0.2520567 0.99355036 -0.8298791 -0.65635604 -0.027357297 -0.6466806 -0.7443818 -0.2517632 -0.6139197 -0.13170245 0.031047333 0.022077374 -0.8180946 0.42061886 -0.15916887 -0.13055648 0.11707769 -0.098823965 -0.72687167 0.6368203 0.87280196 0.92662746 0.9072825 0.0051928265 0.11111599 -0.1152616 0.7335858 0.11391461 0.8528671 0.8540004 0.14384705 0.42070445 -0.068874225 -0.060325183 0.6060289 -0.011868956 0.64583546 0.30726412 -0.47904173 0.26389176 -0.029843466 0.6468928 -0.15474999 -0.63441044 0.35841817 -0.5395793 0.7473534 0.6852153 0.9262382 -0.6016338 -0.6582251 0.33248922 0.62397045 0.41407582 -0.3490592 0.820791 0.019552711 -0.54844314 0.7351643 0.8100419 0.885642 -0.82962173 -0.6382109 0.6189482 0.8557996 -0.65187573 0.7400183 0.88788813
('얼굴','Noun') 0.8925774 -0.40291828 0.14973828 -0.27556688 0.5172727 0.17650677 -0.3318608 0.46840522 -0.47251385 -0.6234895 -0.4741537 0.46661952 -1.0217073 0.16832694 -0.139657 -0.6200648 -0.3987064 0.025460364 0.8793763 -0.9573016 -0.04505046 0.4281568 -0.865509 0.93702805 0.8228683 0.24984956 -0.6162228 0.74716896 0.88143086 0.7867966 0.17356458 0.40386188 0.88459665 0.4003863 0.06668722 -0.78439915 0.7702874 0.9201821 -0.19017859 0.83123493 -0.09080211 0.4679421 -0.39141104 -0.7666763 0.650675 -0.18058169 0.1865687 -0.9048482 0.9850133 -0.86294633 0.3880144 -0.41061288 0.35929993 0.76291776 -0.30110905 -0.36282334 -0.1731529 -0.6235088 0.61004204 -0.0018899345 -0.43045312 0.6314827 0.007020481 -0.42643145 -0.6256434 -0.04262196 0.23488215 0.38132486 0.6067634 0.18256706 0.263957 0.25506845 0.47442377 -0.89068425 0.4171465 0.13382837 0.19356953 0.42763314 -0.37255785 0.04396695 -0.03192182 0.6626014 -0.4896988 0.8678528 0.4612189 0.6573408 0.3922591 -0.50280786 -0.23109894 -0.7306181 0.54067284 0.7432558 -0.18200311 0.6918972 0.08848871 0.25352067 0.43683216 -0.93588144 0.30946204 -0.48761934 -0.5625557 0.7426951 -0.45526746 0.30770797 -0.12832634 0.6661412 0.11025767 -0.8346264 0.106077075 0.5832703 0.37708524 -0.25845873 -1.0416896 0.07414532 -0.16234367 0.6795096 -0.05737619 -0.57686883 0.8094058 -0.43015885 0.40215525 -0.07063228 -0.12496344 -0.5815283 0.91839767 0.33148357 0.57001954 0.68075544 0.31715882 -0.8604522 -0.4819082 -0.31451192 -0.558124 -0.45096073 0.21352683 -0.6708331 -0.3972373 -0.6591487 0.55388653 0.21484037 0.39254457 0.6170603 0.59279954 0.22154078 -0.649389 -0.4144174 0.5666779 -0.825366 0.8725289 0.9980819
('그','Noun') 1.059181 -0.53568596 0.5359785 0.37643436 0.65754396 0.61024266 -0.6758098 -0.34474164 0.85148746 0.7740817 -0.82209814 -0.8361155 -0.06762609 -0.70592844 0.21140963 0.3841548 -0.060024563 -0.64978546 0.070169955 0.6743076 -0.8822546 -0.34644094 0.89588773 0.42854598 0.029557718 0.44018427 0.48415655 0.46301305 0.005436756 -0.40322256 0.020820739 0.4208307 -0.6639625 0.5333927 -0.026250077 0.65275615 0.046382822 -0.48106298 -0.031050488 0.6392846 -0.43957168 0.8024081 0.68509704 0.41627973 0.85188305 -0.102411926 0.60370815 0.08181541 0.20590422 0.75409085 -0.23814557 -0.62703794 -0.5968857 -0.0604702 0.13141762 0.32305145 0.5900274 0.8335475 -0.9120758 -0.44125038 -0.31871858 -0.46696308 -0.8052234 -0.722703 0.42810056 1.0859042 -0.11688031 0.7597997 0.13423985 -0.64445037 -0.15536311 -0.7025935 0.003743689 0.46810484 0.6866441 0.36615276 -0.73128164 -0.36687875 0.0527268 -0.7248012 -0.44882765 -0.2950188 -0.097339466 -0.9808875 -0.8540118 0.19641659 -0.4157023 -0.4269275 0.015740873 0.488256 0.42001048 0.92769605 0.62857676 -0.26203743 -0.50269735 0.01882262 -0.52636355 -1.0817012 0.6966731 -0.26833838 0.031831823 0.9942004 0.2868417 -0.3973484 -0.7400983 -0.5973851 -0.52821517 -0.94934464 -0.2890089 -0.7239224 0.9652072 0.7697818 0.78536516 -0.40296346 0.05664559 0.79447967 -0.9178039 -0.68446034 0.84221286 0.55695766 0.37184542 0.2855977 1.0032257 0.13118495 0.5467574 -0.14993416 -0.71134484 -0.391493 0.60401475 0.5398057 0.09220822 -0.15876414 0.22002754 0.37988272 -0.6723405 0.26597095 -0.60969615 0.056133375 -0.30148765 0.9308553 -0.5348122 0.7379709 0.14980695 -0.41572636 -0.22582795 0.0885973 1.2023231 -0.83495736 -0.45358002 -0.24288416
('일','Noun') 0.7520513 -0.7949455 0.3080088 0.617324 -0.08745448 -0.88270104 -0.6443245 0.38407937 -0.68972313 -0.3410821 0.664798 0.12943812 0.40065697 0.3213877 -0.57983667 0.025651313 -0.58818513 0.27675092 -0.60700625 0.095131226 -1.0650043 0.2759968 1.1605353 -0.70732117 1.1244417 -0.22867993 -0.050943445 -1.0851514 -1.1985893 0.50268465 -0.0758848 0.5977204 0.39784238 0.34848875 -0.75546765 0.0016659616 0.8102491 -0.53000367 0.503565 0.36088002 0.66665596 0.35034862 -0.8788255 0.98367 0.8966109 -0.24067798 -0.16103771 -0.63315934 0.9902744 -0.39055914 -0.4696034 -0.46658388 -0.21966754 -0.61605006 0.8278564 -0.278789 0.3585508 0.2789418 0.4203563 0.9782425 0.42406046 -0.81774384 0.77447635 -0.3344134 0.66371095 0.67035496 -0.32566088 -0.14754009 1.14421 0.0004285038 0.70994675 -0.3380073 -0.9839446 -1.2895668 0.13879088 0.100477375 -0.6993062 0.4493053 -0.4394279 0.9220014 0.27307707 -0.5269363 -0.63909155 -0.31452125 -0.4681148 0.46202365 -0.01802493 -0.34722865 0.40208253 -0.034732502 -0.39740944 -0.98376125 -0.23457448 0.32888293 -0.95491904 -0.43080586 -0.5248752 0.4330526 0.6461858 -0.02041356 -0.039578427 1.1050147 -0.12342469 0.77137595 -0.13678604 0.34704256 0.6410849 -0.4873796 0.9333117 -0.520666 0.56071377 0.33193713 0.10402131 0.048073463 -0.3841192 -0.18850541 -0.8434304 -0.41393638 0.19622628 -0.5340218 -0.78492975 1.1481009 -0.044800606 0.15141968 0.44239816 -0.7143938 0.2903616 -0.5460786 -0.5436992 0.26704592 0.35650536 0.13144684 0.23320419 0.43371263 -0.21333957 -0.45407113 -0.82164204 -0.47918653 0.3965319 -0.09597081 -0.4960198 -0.63857764 -0.20726353 -0.6157216 0.23374185 -0.43131214 -0.25522307 -0.34550977 -0.5679714 0.41919154
('와','Josa') 0.838487 0.27467322 0.7342329 -0.7460825 0.5972034 0.49138114 0.15979554 -0.10837004 0.8117911 -0.9898105 0.44930124 0.7866082 1.0069953 -0.6962721 -0.5769766 -0.38039118 0.70769733 0.12174127 0.30060956 0.53644365 -0.94511604 -0.6652589 0.65569985 0.26906943 0.81631494 0.6524433 -0.3373627 -0.5433792 -0.9084342 0.21192722 -0.55134606 -0.6716458 -0.7198425 -0.66205066 0.634531 -0.24112988 0.79005307 0.5175278 -0.3809847 0.68079084 -0.2509541 -1.003949 0.06426168 -0.905105 0.13455366 -0.44718215 0.89964515 -0.4943741 0.19008327 0.8635788 0.044907257 0.45153785 -0.929874 0.44186985 0.87466305 0.47044405 0.65394825 -0.44836062 0.13631982 -0.21173291 -0.45737165 -0.85857266 -0.96681064 -0.22348702 0.58800024 0.9059122 0.2689791 0.11108664 0.50535417 -0.70529073 0.53775036 0.878801 -0.35607126 -0.8825311 -0.3848688 -0.47315535 -0.36309665 -0.84165204 -0.81760556 0.9316209 -0.016777579 -0.28968716 -0.4831149 0.43372908 -0.44071242 -0.06832231 0.76991516 -0.18337956 -0.5423383 0.74201393 -1.1723944 0.1418661 0.41624042 -0.73511547 -0.040370855 -0.5609837 -0.1382216 0.76422006 0.37705404 0.37447715 0.6179382 0.70227754 -0.8437643 -0.06001269 0.10505807 0.584719 0.9622334 -0.29993296 -0.81348324 -0.030026296 -0.24412811 -0.27501768 0.45088956 -0.09815727 -0.20652476 0.9205812 -0.7971599 0.059679125 0.3594934 -0.10839162 0.5888357 0.55164963 0.06561695 -0.84398216 -0.9519805 -0.72127116 0.6574382 0.3895151 0.87069696 -0.5310383 -0.082731865 0.30736357 -0.47291133 0.21919349 0.16367191 -0.40063772 -0.84361655 -0.3852939 0.9889137 -0.50357735 0.4911179 -0.74237496 0.3569305 0.38620418 0.00407845 0.6284104 -0.36412448 0.5735619 -0.14988762 0.31974462
('했다','Verb') 0.89639044 0.84532106 0.061953098 -1.0282379 0.35417795 -0.8044877 0.24351658 0.20611914 -0.8389373 0.07263757 0.6181943 0.5406387 -0.6493682 0.21081278 0.95351 -0.52249855 -1.1121272 -0.120044135 0.8779871 0.67109275 -0.13781643 -0.44970608 -0.6185454 -0.81877667 0.23444052 -0.5927261 -0.5483744 -0.3855191 0.68898034 0.6765495 0.7138046 0.6464636 -0.8977671 -0.3209139 0.7095886 -0.19877742 -0.27157837 -0.7003414 -0.34674796 0.35592434 0.96826 -0.23387311 -0.70938146 -0.09966647 0.6441276 -0.42869452 0.19401929 -0.24764289 0.23014767 -0.5292051 0.012351006 0.81530505 0.8554024 -0.301657 -0.6274507 0.3813135 -0.33832768 0.40980217 -0.14575309 -0.21279308 -0.4935674 0.45023718 0.93935245 0.6844545 -0.3118625 -0.45583937 0.0663997 0.08288364 1.2001957 -0.9949773 0.25824353 0.77240515 -0.033974238 -0.39570054 0.83581555 -0.20314933 0.1076689 0.3989739 -0.3512753 0.69265544 -0.2099761 0.8826487 0.40761113 -0.9682089 0.021734005 0.42090783 -1.0293489 -0.24438122 -0.93558836 0.80065435 0.2235662 0.4189267 -0.04069714 0.8433856 -0.102018826 1.0178227 0.59407824 -0.19880642 0.5675642 -0.2939976 0.44131318 0.96866506 -0.7926902 -0.08205836 0.10565208 -0.81239766 0.66976655 -0.162818 0.7457745 -0.31502974 -0.3651663 -0.4573953 -0.7992623 0.51924056 -0.18721764 0.6565802 -1.0030282 -1.0639809 0.35937285 -0.75221777 0.73241955 0.12877841 1.0158434 0.3109704 0.55899537 0.18707126 0.30721793 0.027743792 0.29855973 -0.2873349 0.5091621 0.34280825 -0.040770974 0.57922643 0.68725216 -1.1130134 0.13825239 -0.027996477 0.96564394 0.65688956 0.5172397 -0.5877841 -0.13141096 0.669309 -0.44238946 -0.66970724 0.88344437 -1.104623 -0.040761556 -0.15553828
('소리','Noun') 0.91169167 -0.87711805 0.43136853 0.700446 0.4371605 -0.38683525 -0.014512822 0.68934625 0.9397886 -0.31892544 0.2539983 -0.21542631 -0.5665453 0.6502744 0.17808719 -0.81632996 0.47077948 0.85907316 0.19999635 0.38727728 0.8184692 -0.7125563 0.41318414 -0.11350234 1.0259752 -0.17132676 0.0011479519 0.08258547 -0.70625806 0.053351775 -0.15671529 -0.2404995 -0.99268377 -0.20373213 -0.632388 0.2323799 0.068534665 -0.930461 -0.6019097 -0.3360668 0.8274019 0.09089229 0.78945416 0.64126074 0.6397856 0.26638865 -0.87600136 -0.931779 -0.5687586 0.6170542 0.9268741 -0.010262487 0.949593 0.23125517 0.19850506 0.77585816 0.26631883 0.21712185 -0.2497141 0.46367896 0.30477023 -1.0180656 -0.33194175 0.60885334 0.10428157 -0.5076682 0.5197669 -0.67082715 0.2594302 -0.35353848 -0.8708349 0.07640909 0.58030176 -0.88402265 -0.024980111 -0.57567936 0.08852783 0.46392873 0.75006706 0.44335407 -0.92378837 0.58840317 0.26341045 0.69064534 0.4630205 0.8065134 0.82242215 -0.877121 -0.52106994 0.87507546 0.18921429 0.26512283 -0.0034408602 -0.41663352 -1.034202 -0.030539801 0.059137926 -0.7789835 0.62197864 0.24120545 -0.26298165 0.2493556 -0.9814558 -0.37885028 0.8505448 -0.8010482 0.18091227 -0.75560457 0.14090179 -0.056718394 0.36320412 -0.11181456 -0.22137421 -0.17113584 -0.876395 0.3026889 -0.7696155 0.12961394 1.1056359 0.7253263 -0.11925415 -0.4319909 -0.7619305 -0.2606286 -0.13022982 0.5938331 0.55475414 -0.11593337 -1.0172788 -0.37837002 -0.38528594 -0.5161268 -0.40065318 0.86118585 -0.22015804 -0.13838589 -0.75440365 -0.8239853 0.6348141 -0.453948 -0.9665395 -0.54669917 0.6043036 0.35503367 0.09018899 0.4509715 -0.09807898 -0.5941035 0.26433113 0.67269003
('당신','Noun') -0.27032617 0.5564594 -0.52216506 0.35372335 -0.061060052 0.04697913 -0.16979429 0.2844969 -0.9935751 -0.65865564 0.6893469 -0.41324043 0.30210388 0.42724478 -0.4731043 -0.07362553 -0.47126117 -0.24768467 -0.45492443 0.74316823 0.29530674 0.7295925 0.733783 1.0332884 -0.2627144 0.1531899 0.13111278 0.5171275 -1.2119632 0.011367492 -0.9072902 -0.7532278 -0.12404081 -0.7736223 0.61617696 0.6841463 -0.4195754 -0.85316193 0.55791414 0.44373104 -0.83065015 0.6250495 0.7970393 -0.85877144 -0.25552985 0.8102675 -0.5903378 -0.8480028 -0.6892084 1.0924819 -0.11303929 -0.7131955 -0.45363918 -0.2932793 -0.14694323 0.18874297 -0.8395914 0.21135694 0.10448854 -1.0136249 0.9976577 0.5368511 0.72625923 0.20713833 0.3298518 0.70146435 0.97069937 0.0626693 0.71433085 -0.06447371 -0.28487036 -0.22185098 0.2175507 -0.60679704 -0.21281025 0.24059883 0.3170129 -0.36248198 -0.28828284 -0.7853368 0.5603397 -0.2079945 0.28290704 0.8254102 -0.8590933 -1.0134012 0.9118446 0.4338224 -0.31081682 0.18990888 0.22115588 -0.5351534 0.12036555 0.86407065 -0.16225985 0.7259442 0.3911952 -0.69506896 0.57639 -0.6119132 -0.2826762 -0.16246404 0.56900126 0.22927836 -0.16040368 -0.54726696 0.9462084 -0.36233506 0.22097813 0.4924988 0.5863977 0.82131976 -0.089830466 -0.04753632 -0.23653966 0.6579116 -0.95769805 0.6460851 -0.17998643 -0.63249594 -0.91801345 0.95809853 1.1070954 9.586336e-05 -1.0240836 -0.52636474 -0.7919276 -0.28253546 -0.6832472 0.20904593 -0.6809579 0.040132634 0.17568195 0.053182032 0.91394913 0.025088053 -0.8655072 -0.2804671 0.3949503 0.8510439 0.3922797 -0.637241 -0.22007628 0.85276324 0.19288886 -0.19733372 -0.002190163 -0.34593517 -0.5232835 0.9701867
('속','Noun') -0.7913967 -0.94276285 0.21259892 -0.31488577 0.2418314 0.3089125 -0.013449455 -0.7743139 1.0019833 0.22526248 -0.7885191 -0.443409 -0.6342502 -0.40651977 -0.55833477 0.4233468 -0.7757599 0.7834625 0.7452116 -0.7135007 -0.8927411 -0.31496564 0.263339 0.81432694 -0.034327626 0.90312856 0.90747595 -0.7393185 0.73479295 0.70567924 -0.013208426 0.6767381 0.42215705 0.5938871 -0.948523 0.2820567 -0.05792679 0.64869714 0.5101361 0.220274 0.7938326 0.12346593 0.5698296 -0.56604236 -0.2267415 0.98777467 0.6883375 -0.058153436 -0.65187836 -0.28486243 -0.56259704 0.17258605 0.14101344 -0.5449178 0.7147883 0.29043695 -0.37525526 -0.5584309 0.6918303 -0.06689472 -0.7390405 0.47051814 0.3802811 -0.8067301 -0.6385177 -0.10810609 -0.5086941 0.44057322 -0.3111642 -0.41141498 0.5918581 0.17553261 -0.8818097 -0.8535878 -0.36322558 -0.6391797 -0.06991586 -0.92813075 -0.90054935 -0.61113966 -0.23883922 -0.8024723 -0.88836163 -0.5406282 0.08050443 -0.7105297 -0.26308224 -0.54087394 0.13492611 -0.53291374 -0.12076134 -0.68984103 1.0866768 0.42091843 -0.04293487 0.3733595 0.07943482 0.40839162 0.48808298 -0.9700652 0.5457864 -0.28505096 -0.18540716 0.8535086 0.62801516 0.3301351 0.3525557 0.4450958 0.2703421 0.20710513 -0.4869417 -0.4849794 0.56982905 -0.63473856 0.20673008 -0.9230546 -0.28595576 -0.36765823 0.84939814 0.43491584 -0.07253645 -0.5327418 -0.8135303 -0.49971727 -1.0816753 0.6620441 -1.0161196 -1.0295244 0.92141604 0.6742328 -0.93315655 -0.931512 -0.38409385 0.6062536 0.8124562 -0.32325763 -0.08587337 -0.29976234 -0.432171 -0.69231343 -0.48173228 -1.0658159 -0.92591375 -0.015763752 -0.8789609 -0.06971253 1.2076261 0.09850708 0.23226966 0.033843994
('말','Noun') 1.0445088 -0.6485982 -0.80805993 -0.5943891 0.31725195 -0.90290236 -0.16342673 -0.652261 0.0009077856 -0.03408577 0.049230374 0.7654147 -0.3574155 0.820366 1.0323869 0.9244842 -1.1695237 -0.04773457 0.012464593 -0.08370905 -0.1592718 -0.91887635 -0.069565974 0.2698998 -0.62350285 -0.7651257 1.1969103 0.11767106 0.7567111 -0.32090777 -0.11631165 0.640556 0.64358515 -0.103189394 0.62758297 0.44848567 -0.2137507 0.6499716 -0.12224848 0.435272 -0.78734297 -0.48779717 -0.70425814 -0.49865687 0.73416847 0.049873248 0.8153399 -0.3398239 0.07496101 0.29071015 0.7857345 -0.63095015 0.650164 -0.26117152 0.26028168 0.4298702 -0.75303054 -0.28798947 0.27284765 0.4637901 0.13707125 0.62023216 -0.38141155 -0.8699342 -0.72701824 -0.68582594 0.3816728 0.1608741 0.6347723 -0.15729639 -0.661106 -0.48119387 0.8598854 -0.8199403 0.49479836 -0.5659532 0.20614079 -0.32886046 -0.40071192 0.09592912 0.6246816 0.751173 0.7333733 0.3355937 0.55517983 -0.4252074 0.8323064 0.80359745 0.019931458 -0.74288845 -0.22972363 -0.28982016 -0.13128076 1.0046855 0.6804582 0.7535484 -0.20825124 -0.030921837 -0.4596901 -0.9316368 -0.11611616 -0.33539653 0.7866507 -0.81121534 0.230486 0.38984358 0.66457915 -0.015535634 0.75463355 0.91522086 0.5654075 -0.67425185 -0.60763884 -0.047084637 0.093329854 0.4328376 -0.4721666 -0.8005668 0.4714901 -0.41845647 0.9111526 0.808996 1.1106946 0.29442674 -0.66489714 -0.21326807 -0.47663254 -0.6410258 -0.9047964 -0.74388224 -0.29944292 0.69842446 -0.019924607 0.7225786 0.08882648 -1.0656146 -0.13045204 0.59889364 0.31940606 -0.22790578 -0.4532082 -0.04485877 -1.0253979 -0.29751125 -0.79349905 -0.11826829 0.5647207 -0.5385001 0.45324212 0.65056723
('한','Josa') 0.95625466 0.3403221 -0.3778906 0.17559925 -0.3333987 0.44325602 -0.018030996 -0.7071942 0.2459559 0.7093626 0.051841993 0.56560796 -0.3411277 -0.4757276 0.18807766 0.92850804 -0.9326929 0.8610043 0.43019179 0.7338001 -0.3615918 0.15887827 -0.54925525 0.9056238 -0.7398489 0.15782021 0.5681213 0.581565 0.38236272 0.19115339 -0.3215726 0.063103065 0.31260416 -0.26139566 -0.046493094 0.16966763 0.7844364 -1.0895793 -0.84498334 0.84697485 0.9235051 0.17754719 -0.6061861 -0.7238338 0.7333317 0.5954243 -0.7769657 -0.3717643 0.53688085 0.16357909 -0.8455541 0.100964874 0.02077027 -0.45691666 -0.51304704 0.3921056 -0.35361433 1.1262914 0.83215094 -0.8712419 0.7952069 -0.43658853 -0.8381209 0.16364129 0.24453633 -0.58599615 0.32582578 0.63274586 -0.5149144 -0.6714582 0.6248735 0.11490797 0.2773465 0.654582 0.14361885 0.73437923 0.1804854 0.8478959 -0.54198265 -0.5378852 0.07789059 0.44905213 -1.0355331 -0.67089945 -0.40904346 0.06521341 -0.9107927 0.46732754 -0.041531287 0.59543794 0.5806086 0.744495 0.8039126 1.1204913 0.25482133 -0.69663286 -0.3396447 -0.82601863 0.47821978 -0.8890676 -0.77379876 0.73731655 0.5559583 -0.047982756 -0.03289484 -0.3795923 0.49882767 0.17565684 -0.80485636 0.3487328 0.60045326 0.46669024 -0.06805147 0.0717943 0.09763985 -0.13798867 -0.17046562 -0.21719643 0.18230152 -0.97789854 -0.09528038 0.8222609 1.1006533 -0.21300143 0.06276203 -0.2837633 0.92227393 0.66879606 0.03722892 0.4412832 -0.7846795 0.9042099 -0.34630617 0.63357115 0.89972955 -0.48766652 -0.40961042 0.7584755 0.25300363 0.6837652 -0.49586228 -0.4137239 0.3523369 -0.2328082 -0.06317736 0.5640059 0.9374377 0.17029703 0.5671976 -0.8784597
('에게','Josa') 0.40693182 -0.12995802 -0.47644585 0.6415733 0.3808595 -0.85535437 0.942471 0.10169389 -0.14702837 -0.91025066 -0.439895 -0.06172853 0.50834215 -0.61812425 0.3850331 0.82069105 0.46565595 -0.0026043374 0.86788696 0.6558734 -0.5066169 0.3974564 -0.75782806 -0.07371661 -0.17122878 0.4462937 0.10630016 0.8925161 -0.80846196 0.96670526 -0.4162786 -0.2215177 -0.5929649 0.43330115 -0.51222587 -0.20294969 -0.41706395 0.94768137 -0.40778655 0.58322984 0.020285957 0.7693282 0.20811832 0.68343943 -0.20702575 0.8096983 -0.37835166 -0.6421709 0.2453948 0.30740383 0.6534354 -0.31548825 0.7196665 -0.43441793 0.6974476 -0.5139117 0.03497774 0.24638496 0.649005 -0.7024051 -0.3835928 -0.5791568 0.07907952 0.19998993 0.79374355 0.8027691 0.8426454 -0.73333377 0.16142792 0.27794904 -0.28702903 -0.60164464 -0.43041435 -0.67818815 -0.4461984 -0.34443304 0.74301386 0.38375744 -0.32038733 -0.9255823 0.072266065 -0.46539187 0.82788825 0.6879629 0.086231366 -0.77644426 0.14032501 -0.023613982 -0.12161606 0.67520803 -0.76953405 -0.028347164 0.99217397 -0.26019493 -0.71280736 -0.038151614 0.6956599 -0.4849385 -0.9799025 -0.06367294 0.7174449 -0.77080184 0.54553 -0.18580444 -0.5247171 -0.5587643 -0.5248015 -0.75096446 -0.52269405 -0.7068959 -0.79057306 0.7667766 -0.560254 -1.0156332 0.11595399 0.9708704 -0.16702268 0.37509888 -0.9579532 0.64969313 0.21030827 0.8599199 -0.7364018 -0.931684 0.001783923 0.5282552 -0.30940723 -0.20905353 -0.2933834 0.5980771 0.79483867 -0.05201128 -0.57990223 -0.2789105 0.4696156 -0.7728323 0.47169316 -0.92045176 0.7597369 -0.09562498 0.28831905 0.6051569 -0.46137148 0.84905577 -0.6926025 -0.47438508 0.45204702 -0.32012206 0.5195427 0.6902028
('나','Noun') -0.14418887 -0.8892104 -0.76331925 0.26559794 0.38436785 0.18888609 -0.032710295 -0.7044799 -0.13087016 -0.3759072 -0.52083945 -0.4955735 0.37536252 -0.4318547 0.84757024 -0.1086155 -0.19550458 0.51177394 0.7382769 -0.80623555 -0.093361504 0.5045397 -0.14231317 0.8654405 0.019107131 -0.53403544 0.5251158 -0.01248077 -0.9914547 0.23287661 0.0038945577 -0.49912626 -0.79730994 0.76573074 -0.88456774 -0.6448187 -0.24707626 -0.23603605 0.41601893 0.45663956 0.79382586 -0.7663728 -0.75782925 0.0076357895 0.86082 0.09260408 0.62792295 -0.89495337 0.94099164 0.42295 0.7474443 -0.60459304 -0.6936273 -0.48266822 0.3337663 -0.16671814 -0.15669557 0.468063 -0.53298295 0.46197957 1.0337845 -1.1284726 0.5531452 0.995769 0.5447925 0.47228742 0.38486215 0.06941043 0.071170345 -0.45737725 0.41074798 0.4094453 -0.515614 -0.70159084 -0.84611785 -0.8079486 -0.56210643 -0.76539004 0.13223197 0.23614988 0.44098452 0.22553949 -0.9335099 0.7526411 -0.46735132 -0.94957346 -0.345205 0.27384162 -0.8499665 0.874301 0.15546933 -0.49229088 1.0088207 0.386079 -0.54466605 0.3619467 0.06508823 0.17241354 0.5314036 0.67666954 -0.49064794 -0.0032253314 0.17473997 -0.62749285 -0.48754787 -0.4351675 0.2665025 0.2904822 -0.14377066 1.025132 -0.01905535 -0.42283586 -0.057704985 -0.29015738 -0.80906045 0.52931386 0.4309463 0.52865046 -0.3927822 0.28680292 -0.28000873 -0.44589275 -0.28327727 -0.34116557 -0.044598028 -0.919371 0.52983695 -0.882549 -0.7514035 -0.25159392 0.9965757 -0.19710219 0.2727868 0.22080396 -0.97022945 -0.56681806 -0.4985796 -0.7404446 -0.3355608 0.006970075 -0.3377592 -0.46070352 -0.9803027 0.79087853 -0.51310426 0.78445065 -0.39989766 0.73340297 0.33597666 0.64617014
('저','Noun') 0.2783653 0.083302036 0.7099899 -0.9490112 -0.51264036 0.52192074 -0.025005367 -0.50586414 -0.42199162 0.0012099468 -0.4790503 0.6122608 0.7104072 0.96558005 1.0562212 -0.32863355 -0.39772052 -0.7139984 -0.72301644 -1.2057678 -0.4107647 -1.168928 0.37894902 1.068751 0.28062296 -0.8205679 -0.5618706 0.057496358 0.038154088 0.76065356 -0.07038927 0.04468598 0.025301205 0.4006072 0.20272122 -0.55495644 1.2822313 -1.1058512 -0.538938 -0.38778368 -0.62738776 0.16846776 0.70124054 -0.32272965 -0.4109956 -0.17104962 -0.88437545 0.6674845 -0.2483902 0.76566494 0.04946533 0.19937299 0.28373817 0.13871671 0.39979112 -0.097327106 -0.11632302 0.65273595 0.038944677 -0.10886049 0.21201181 -0.22236404 0.15999205 0.6483367 -0.6049032 -0.1126428 1.1079485 -0.81234366 1.1407865 -0.8801461 -0.044570837 0.742893 0.008400214 -0.854893 -0.55628353 0.69014275 0.3549642 -0.28208116 -0.9049619 -0.29184812 -0.65240383 -0.48496172 0.21075362 0.30099732 0.014277887 0.46759278 0.1271755 0.5460371 -0.46555898 0.12401274 -0.92425776 0.64450926 1.3087687 -0.03237556 0.22645651 0.47679222 0.66204333 -0.24787796 0.76787454 -0.13045137 0.43195602 -0.23770092 0.7019501 -0.6315729 -0.13968828 0.3231701 -0.6064651 -0.9221699 0.26466316 0.01801099 -0.4217591 -0.8854403 0.050761446 0.7287704 0.1298093 0.49524972 -0.5945208 0.010464373 0.013288319 -0.85865325 -0.69981474 -0.5892657 1.1611933 0.4775462 -0.5633176 -0.31319866 0.27133074 0.6262839 -0.4252054 -0.40991578 -0.70110714 0.67821455 0.2526122 0.71611637 -0.43202266 -0.65874213 0.7261095 0.53199285 0.6749705 0.58686906 -0.14214933 -0.1241675 0.74226 -0.21562317 -0.83647686 -0.3506131 -0.06770853 0.22547993 -0.22357771 -0.44503474
('손','Noun') -0.756708 -0.84096795 -0.7505767 0.27519497 -0.80072576 -0.33725196 0.7317613 -0.016268976 0.77835447 -0.9402739 -0.9129293 -0.66285354 0.61613303 0.78825396 -0.22380118 0.59475 0.06013948 0.28717187 0.6220722 -0.7768485 -0.67947084 -0.01441773 -0.14057298 -0.7373715 0.644502 0.9104138 -0.81136745 0.10806585 -0.7229713 0.21039252 -0.12301759 0.54890275 0.36404404 0.60388726 0.604759 0.4752248 0.7357595 0.15372294 0.4321828 -1.1192164 0.16021824 -0.61649245 0.110184245 0.82201356 -0.24260874 0.899402 -0.91869116 0.26611087 -0.41533095 0.7153235 -1.0288273 0.9763757 0.8970066 0.6083286 -0.5425592 -0.70974606 0.42519096 0.0758467 0.74680024 -0.5812993 -0.46033 0.008452121 0.5663246 0.2095556 -0.6265378 0.56723684 -0.3932886 0.0905794 -0.117777914 0.10293214 -0.011196763 0.22547743 -0.63730097 -0.5237628 -0.61841655 -0.37311646 0.87108153 -0.47269735 -0.5557808 -0.7166888 0.092839964 0.12794505 -0.8118572 0.050563548 -0.24711627 -0.122858934 -0.6361973 -0.7550664 0.905405 -0.0537309 -0.78265226 -0.061171412 0.9447432 -0.5409646 -0.2606328 0.32375506 -0.5476184 -0.84363705 -0.20055144 -0.006381974 -0.81943893 0.046709407 -0.52562004 -0.084349446 -0.29873 -0.7170825 -0.06708657 0.11340767 0.0042620753 0.49556035 -0.04662018 0.84857434 0.56951815 -0.25349617 -0.068364516 0.3037391 -0.6588241 -0.6534547 -0.1339624 0.7682273 0.5663145 0.11014169 0.71608454 -0.49312723 -0.6252406 0.41205156 0.67576844 -0.00089506095 -0.21433252 0.3719769 0.19468948 0.23012935 0.71154517 -0.4693729 -0.41345897 0.41980615 -0.036653217 -0.30481374 -0.9394369 -0.15382831 0.17213655 0.7203733 -0.008091945 0.51146 0.9722399 0.53514916 0.19653593 -0.71380395 0.08307311 0.1415225
('눈','Noun') -0.4970724 -1.0064735 0.49466848 0.53336793 -0.19821642 0.931418 -0.45638394 0.35921448 -0.39011562 0.6160422 -0.15273991 0.37447834 -0.2068641 0.29340738 -0.62471956 0.7654941 0.14495447 -0.18984374 0.63742054 -0.23359305 0.33593598 -0.8250576 1.1143658 0.055072285 0.73993474 0.1865344 0.91400945 0.4086864 -0.76612586 -0.51271373 -0.13152915 -0.10265603 0.5804907 0.5325328 -0.073504955 -0.8018647 0.9828706 0.3825992 -0.01283567 -0.3937057 -0.39649743 -0.8982024 -0.5166185 0.49580368 0.26158458 -0.01744597 -0.5861042 -0.7082513 0.26177943 -0.90153897 0.65402484 0.32271165 -0.7187917 -0.10830213 -0.3437131 -0.6491746 -0.56818855 -0.6553147 -0.63756424 0.8239732 0.6021973 -0.52305233 0.09134472 0.33934072 -0.7906908 0.1136446 0.0602278 0.6162918 0.33354953 -0.7168695 -0.7817044 -0.25997704 -0.36035985 -0.033190057 0.91200405 -0.38092667 0.6639255 0.700065 -0.19541678 0.53607464 0.8966841 -0.2570022 -0.7508597 -0.77593577 0.049855772 0.5599988 -0.21261445 -0.25379887 -0.4796109 -0.5661183 0.26868558 0.90891784 -0.5863394 -0.6330466 -0.18461809 -0.20167342 -0.45813268 -0.7076507 0.74170244 -0.19371435 -0.76032865 -0.49029037 -0.7674689 0.51345384 0.35309213 -0.2168469 -0.51951003 0.71549183 -0.101417206 0.9815877 0.061425697 -0.12664215 -0.22117323 -0.36082497 -0.27675518 -0.18429081 -0.24673118 -1.096267 0.11247872 0.2496027 -0.5482283 0.6294673 1.1260566 -0.32035044 0.5940536 -0.8590226 0.38822755 0.54153365 0.16112289 0.40285248 -0.23220013 -0.53394735 -0.939538 0.6765041 -0.22876778 -0.9751544 -0.48664895 0.20544383 -0.2686489 -0.0057348805 0.061875287 -0.20491719 0.34469238 -0.21152376 -0.7929499 0.56844705 0.9824102 -1.2726638 0.87853205 -0.72513926
('집','Noun') 0.46304747 -0.9278461 0.82252085 -0.91761947 0.44835937 -0.07161924 0.59331226 -0.597413 -0.76285654 0.70034623 -0.6640892 -0.17645462 0.031338412 0.28619942 -0.07524898 0.9109374 -0.15699923 0.7971388 0.45394593 -0.37766212 -0.4694747 -0.4007766 0.6939722 -0.08588887 -0.6125345 0.997682 0.1864382 -0.66870075 0.39653572 0.07495578 0.24563807 -0.4995213 -0.82307154 -0.76821876 0.75088453 0.36474994 -0.46313214 -0.23364285 0.12741052 -0.6307971 0.9386728 -0.008639589 0.8685219 -0.08137111 0.95770824 -0.29289335 0.3830681 0.70053625 -0.7198948 -0.47400203 0.21697077 -0.4558295 0.8865559 -0.6974558 0.5309254 -0.5129011 -1.0589727 -0.79587203 0.2787371 0.18114355 0.49711078 0.7639033 -0.8578178 0.057397444 -0.25760257 -0.017071169 -0.62602115 -0.57730806 -0.75389683 -0.2538196 -0.31990007 -0.10704879 -0.4034743 -0.336019 0.1791768 0.75891227 -0.8751492 -0.017558405 -0.044253837 -0.42549935 -0.145739 0.029062748 -0.87124425 -0.96108204 -0.9946956 -0.4249067 -0.22440454 0.51015085 -0.11557642 0.4212592 -0.8957046 -0.392018 -0.4077535 -0.72468936 -0.048895177 0.4831749 0.607208 -0.8317947 -0.92175025 0.41190338 -1.0530099 0.8169817 -0.735302 -0.33791336 -0.266977 -0.55181533 0.91358954 -0.80695665 0.9854889 -0.90511054 -0.11976638 0.7844742 0.15394816 -0.21455362 -0.09382757 -0.396681 0.21862788 0.5056754 -0.069961995 -0.014879256 -0.8688019 0.62343824 0.9925449 -0.8306228 0.04503894 -0.62512136 0.6349158 -0.30665842 -0.0525865 0.71612847 0.52541745 -0.6967265 0.13260137 -0.716841 1.06344 -0.7886546 -0.5318573 -0.28101495 0.7975618 0.51154965 -0.003158311 -0.15050356 -0.4523574 0.6047676 0.70049953 0.74492 0.6474245 -0.86665726 0.65298194 0.8687211
('사내','Noun') -0.7801553 0.053426158 0.35910437 0.43073845 0.91536707 -0.65957147 -0.14423992 -0.42520827 -0.10743949 0.5126436 -0.3306205 0.36194524 -0.71370715 0.1312137 -0.048481215 0.60416883 -0.9255457 -0.07423153 0.74342257 -0.09565713 0.49516106 0.3794886 1.078829 1.1235638 -0.22366823 0.72353274 0.8342466 -0.16790617 -0.38565764 0.7919985 -0.4162312 -0.014106548 -0.87971276 -0.467284 0.57522213 -0.5421013 0.86105233 -1.175216 -0.55851275 -0.05344355 -0.25075856 -0.87815547 -0.0919473 -0.4990499 0.22624551 -0.7900949 0.30179602 0.16429518 -0.59736985 0.14687146 0.44890335 0.4992389 0.7695728 0.72614205 -0.07519916 -0.7617621 0.16091684 -0.030204056 0.1553709 0.7487555 0.69493634 -0.8856291 -0.25485808 0.9690757 -0.6299448 0.9726761 -0.45131066 -0.6062567 0.4578137 -0.76920724 -0.7283784 -0.036239643 -0.64401275 0.670443 -0.82283443 -0.62563473 -0.47574127 0.34874964 -0.1370712 0.82523 -0.6544943 -0.59796494 0.24625777 0.81036824 -0.40862927 -0.42541012 -0.20392592 0.85510814 -0.43197194 -0.117938094 -0.80155194 -0.41451433 -0.063014895 0.43900198 0.47094622 -0.05740849 -0.62613606 -0.08836908 -0.1338529 0.03884189 0.034267593 -0.13201758 0.9769403 -0.37534368 0.88639444 0.10050219 0.853123 0.6189089 0.22960031 -0.65687037 -0.67360264 -0.44711706 0.05066446 -1.0269309 -0.79332024 0.41650945 -0.9744453 0.32887718 -0.39037216 -0.7344146 0.72513336 0.9517538 0.15222527 0.4868914 -0.30794677 -0.97755057 1.0228713 -0.1965549 0.88069993 -0.056206014 -0.60828847 -0.94423383 -0.79630476 -0.13457406 -0.4107582 -0.25411266 0.589189 -0.12887812 0.52669305 -0.3017159 -0.27946976 -0.87895715 0.22423778 -0.48550004 -0.69430184 -0.36359397 -0.61296433 -0.7854343 0.8034428 -0.7796326
('고','Josa') -0.64236283 0.40864292 0.7642205 0.059388984 0.1680563 0.15567973 -0.5789844 0.43487585 0.23849775 0.8431596 0.35533416 0.821777 -0.99669236 -0.8162537 0.8606898 -0.27308187 -0.93314856 -0.10417297 -0.35216203 -0.39484927 -0.4272297 -0.81242156 0.9653635 -0.67394 0.15783083 -0.40121132 -0.30185905 -0.015239227 -1.1680067 -0.02948172 -1.1149 -0.3210951 -0.26053992 0.26621175 0.21103509 0.70404077 0.0893701 0.20049945 0.5221127 0.31379083 0.43914118 -0.8825806 -0.3964413 0.4379722 -0.27349406 0.15799792 -0.71719784 -0.44430572 -0.6870141 -0.19578214 0.71527475 0.40937066 0.6032193 -0.93470204 0.025871418 0.3565897 -1.0179687 -0.16924658 -0.88873756 -0.11858681 0.66992784 0.45184165 0.77119595 0.2437835 -0.81290203 -0.13286959 -0.21728744 -0.47103593 0.47260535 0.1630574 -0.49227816 -0.5021411 -0.7036432 -0.025184687 0.75980604 0.20091665 -0.17463063 0.39513674 0.048854217 -0.8359421 0.6047233 0.044660516 -0.9901351 -0.26002294 -0.20064664 -0.0047706417 0.030558512 0.53188354 -0.9958969 -0.47119522 0.28958714 0.6681571 -0.5507979 -0.05501566 0.14574279 0.38856167 0.49495703 0.3393991 -0.16181493 0.15663154 -0.56723124 0.5480221 0.6855926 0.72800624 -0.09174233 0.8356426 -0.30002898 -0.555677 -0.33221748 0.9239183 1.1507906 -0.07031931 0.24411713 -0.869536 -0.027309855 0.826408 0.31982103 -0.9076302 0.31386054 0.73743594 -0.48076248 -0.547071 1.1013784 -0.38627404 0.04484184 0.19146575 0.14442632 0.35559753 0.1089994 -0.58395547 -0.1973036 0.75608104 0.6102065 0.22388187 0.31253427 0.06939236 -0.89237934 0.16237366 -0.25630382 0.0786262 0.44210666 0.26454338 -0.45088497 0.040562015 0.1336404 0.038413804 0.5229649 -0.28050476 -0.64674443 -0.8749835
('아이','Noun') 0.7437618 -0.7894018 0.72016597 -0.075860955 1.0429821 -0.35098106 -0.46856222 -0.29923356 -0.94863707 0.17983538 -0.16472962 -0.03701849 -0.17661794 -0.42729902 0.2182147 0.76578474 -0.05298913 -0.19045399 0.40793607 -0.116639756 -0.18453911 -0.8877061 0.06297459 -0.66649675 0.48544696 -0.12840608 0.25466368 -0.46658814 -0.14358701 -0.7641621 0.16946326 0.112081364 -0.3036454 -0.58703154 -0.3943901 0.70333827 -0.2492808 -1.0959265 -0.22354667 0.9612491 -0.29287905 -0.6750697 -0.4689951 0.19751455 0.59333956 0.6195797 0.0040050717 0.389238 -0.3003702 -0.715533 -0.6281067 0.21970223 -0.8257441 0.84081864 0.81152195 -0.49210337 0.41997868 -0.6332947 -0.49376166 -0.21402268 0.36787826 -1.0583384 0.7941593 -0.684292 -0.71170676 -0.7210606 0.9405737 0.5139998 0.07839902 -1.0862138 0.39923564 0.34326693 -0.0012784724 0.15697931 0.49266195 -0.39966404 0.0480742 0.0589792 0.008535285 -0.7822173 -0.22640601 0.16058739 0.48962522 -0.005664486 -0.10059954 -0.8640017 -0.7492251 0.05403028 -0.5507899 -0.03977997 0.65324783 -0.15541328 0.61557734 0.8561183 0.47328338 -0.059163425 0.90414447 -0.56329316 -0.9777903 -0.2631078 0.4243227 0.38942698 0.968118 0.6364374 0.015730742 -0.5644847 -0.99919087 0.31377703 -0.46565387 -0.21449837 0.24124387 0.14622162 0.5811087 0.5698152 -1.019181 -0.57298714 -1.1553706 0.16395864 0.4244401 -0.17515826 -0.0075878105 -0.35067236 0.80777305 -0.50832254 0.8398117 -0.49713793 0.9501736 0.90799195 -0.3241356 1.0387479 -0.7009049 0.16539887 -0.11834244 0.13671112 0.06700509 -1.0361041 -0.3329554 0.18649429 -0.18665226 -0.6765653 0.115809396 -0.4355236 0.4523506 0.5801152 -0.3221935 -0.7586418 -0.29244217 -0.5536599 -0.069858916 0.3322244
('방','Noun') 0.35970148 0.14988364 0.10408518 0.4126445 -0.32771733 -0.6256387 -0.26529604 -0.14335768 0.24113894 0.20814122 0.08804102 -0.659291 -0.26946598 -0.43457398 -0.11985286 -0.2098252 -0.37998348 0.16837122 -0.26583797 0.33246014 0.3855685 -0.9691643 0.019584661 0.9792006 0.4390403 -0.7675477 -0.5281356 0.19493935 0.21778351 0.7017509 -0.059757426 0.43711665 -0.9845483 0.15465091 -0.54169095 1.0319314 0.61077446 -0.19285373 -0.098685294 -0.041156027 0.6247718 0.7032635 0.22309802 0.8048042 0.5243712 -0.5606988 -0.74076533 0.66622543 -0.06559991 0.3801372 -0.0056501995 -0.88687015 -0.13771255 0.9182613 0.15099855 0.60060775 -0.6513771 1.1085485 -0.37021035 -0.6540566 -0.47719833 0.4723686 -0.77871567 -0.57763356 -1.1086813 -0.24253863 1.3046765 -0.4784929 0.8403169 0.57665104 -0.27891895 -0.035763998 -0.14692222 -0.31632322 -0.09965181 -0.6471694 0.778961 -0.03523127 -0.69117206 0.98578155 1.0486348 -0.6737834 0.039366826 -0.6956792 -0.76955515 0.98119897 -0.030280475 -0.21355014 -1.084933 -0.35177037 -1.2212127 0.48653334 0.7841609 0.19764881 -0.89860207 0.8426434 0.1746639 0.52965176 0.15286353 -0.3102278 0.41062182 1.2308933 -0.0206726 0.995628 0.028791133 0.6218874 0.08633274 0.2837112 0.13164736 -0.2688672 -0.44876188 0.4293763 0.24705277 0.6104066 -0.006774665 0.096847855 0.24703547 0.16420086 0.4167525 -0.55200833 -0.12864049 -0.34853593 0.42897564 -0.3785262 -0.05456466 -0.07826032 0.5781327 0.4986428 -0.2775106 -0.35671315 0.18002872 0.22294404 0.45258796 0.072963856 -1.0295446 -0.31667495 -0.010131577 -0.04629659 1.0150589 0.51146233 -0.6482522 0.3255624 0.38663605 -0.4906338 0.7142409 0.8723757 0.79022163 -0.91602266 0.38933194 -0.5716054
('세상','Noun') -0.61508965 -0.45181742 0.39158502 0.45580336 1.1519635 0.5455398 -0.3656846 0.85367936 0.7812078 0.4736724 -0.47842392 -0.63191473 -0.9814149 0.481434 0.023877705 -0.5955286 0.058597583 -0.18292229 0.016518865 -0.69158393 -0.45873576 0.05664644 0.9658718 -0.80189717 0.6283133 0.62233865 0.97589225 -0.8000084 0.31758866 0.78822654 0.46336272 0.4754343 0.39684737 -0.23407724 0.6287703 0.8527241 1.0266994 -0.5263945 -0.20337917 -0.32876265 0.38608187 -0.060268525 0.2238644 0.5536737 1.0448121 -0.9229012 0.58798593 -0.6296831 -0.31977388 0.015691036 0.10043263 0.001570987 0.22000954 0.81685907 0.98416156 0.36582014 0.70761645 -0.22574775 0.81492734 -0.5886553 0.6547236 -0.29566848 -0.21369258 0.48991594 0.745038 0.7505359 -0.88347244 0.87660885 1.0630217 0.18025862 -0.53185964 0.35191977 0.76885825 0.5735043 -0.95471114 0.4838861 -0.018679053 -0.84688205 -0.97355497 0.33844098 -0.6594457 0.24835601 0.13676573 -1.010071 0.46689433 -0.37490916 -0.9040631 -0.8317953 -1.0241871 0.15438168 -0.96410453 -0.25419763 0.19205366 0.6053612 -0.5130064 0.023795813 -0.7145262 0.55587494 -0.46940082 0.6876298 -0.24867478 -0.66692185 0.3858437 0.0428088 0.88014764 0.09037586 -0.80316037 -0.745911 -0.38513964 0.99108946 -0.1480381 -0.7355484 0.5198556 -0.63566124 0.25006053 -0.5938673 -0.32216823 0.833643 0.7005176 -0.049023338 0.9085722 -0.52615577 0.4265704 0.48290625 -0.19206321 0.2511104 -0.40805647 0.6697902 0.38106355 0.7077561 0.6209547 -0.5699645 0.75657994 -0.35783318 0.13000827 -1.1103812 -0.48190597 -0.21993393 0.7983992 -0.2743197 0.15874936 -0.851137 0.28234795 -0.49361175 -0.02442201 -0.26620188 1.1172242 -0.15747166 1.0576699 0.42127427
('까지','Josa') 0.62396616 0.335554 0.90960807 -0.5540048 -0.52213585 -0.58287686 -0.7138675 0.53326094 -0.914707 -0.023010217 -0.5751015 0.270993 -0.24126467 -0.26377767 -0.06981918 0.16145547 -0.50247353 -0.15711196 -0.9317375 0.70940113 -0.5262946 -0.8762705 0.7036381 -0.2302454 -0.6174439 -0.20600869 -0.7228773 -0.44791904 0.9691231 0.6904807 0.24137539 -0.4717816 0.028697824 -0.4445944 0.37664944 -0.1817965 0.0023612436 -0.85533434 -0.16863048 -0.2338892 0.7188022 0.14559206 0.8643144 -0.7731561 0.8680964 0.76655257 0.9691824 -0.39227733 0.026150161 -0.8668849 -0.44620916 -0.91676104 1.0184425 0.09601907 0.8049304 0.82502294 0.85388994 -0.48525167 0.004470953 0.19062705 0.8460024 -0.61378825 0.33752474 0.39724854 0.33327705 0.66059905 -0.53963196 0.6784755 0.70801 0.9087133 0.068810366 -0.16775216 0.4095984 -0.9260441 0.6122568 -0.9497587 -0.5735317 -0.8113875 0.6015748 0.4663003 0.8119991 -0.69820297 -0.75801694 -0.18624774 0.28879157 -0.5120855 -0.8848133 -0.01639892 0.87918603 0.073037565 -0.9298597 0.7816113 -0.28168505 -0.4777016 0.26947862 -0.0023612147 -0.06761627 -0.08807731 0.6352693 -0.6048472 -0.23573056 -0.88576996 0.45678312 -0.4332851 -0.26280823 0.7927483 0.20935285 0.20793694 0.81210154 -0.6656941 -0.137336 0.411448 -0.94355875 -0.05697294 -0.9050806 0.38698778 -0.8760869 -0.44140252 0.23308037 0.4851752 -0.4236144 0.99627995 -0.9665917 0.42421776 0.79163635 0.25576445 0.46025646 0.7937822 -0.88980967 -0.27187586 -0.74635416 0.9289939 0.2417392 -0.89482135 -0.7962258 -0.57241106 -0.7499696 0.00332357 0.9336632 1.0485823 -0.82682467 0.14423981 0.11563032 -0.08589476 -0.78073615 0.31126517 0.4025738 -1.0137743 -0.22267456 0.5998764
('들','Suffix') 0.8308992 -0.5479371 0.8662676 0.77244467 -0.3335912 0.19906153 0.7339967 -0.9570137 -0.29713443 -0.5635545 0.93764085 0.6466208 0.34478208 0.3900157 -0.24411748 0.32546085 0.87618357 -0.7530868 0.20063432 0.2718265 -0.40899548 0.009536358 0.8687999 -0.89245296 -0.86246866 0.73412406 -0.34187627 0.2242469 -0.67288643 -0.6033604 0.72290695 -0.6353241 0.3119854 -0.5233398 0.84641093 -0.2573679 -0.4178232 0.43362916 0.36248672 -0.32255307 0.84543216 0.96836925 -0.016800825 0.9043759 0.7182242 -0.66790235 0.6085332 0.48944876 0.24562575 -0.9331419 -0.041595455 -0.99069196 -0.41885146 -0.06394177 -0.14106965 0.6054014 0.21693197 -0.11147279 0.9250587 -0.69121695 0.12216743 -0.07487388 0.23976968 -0.8258219 -0.16221547 0.46329743 0.26394537 0.26592675 0.85188925 0.2859513 -0.33714983 0.4228489 -0.41515046 -0.6268394 0.54144555 0.45301682 -0.34273016 -0.13183852 -0.26765782 0.9055872 -0.317914 0.54360175 0.86340046 0.21913303 0.051229168 0.3523508 0.40954098 0.5327066 0.057813723 0.46678665 1.1209617 0.5339018 0.03339521 0.76490873 0.4741391 0.7950573 0.30779776 0.5181112 0.1773427 -0.5925523 -0.25625768 0.6916946 0.46535462 -0.75085187 -0.03746857 -0.3198292 -1.0062594 -0.6365427 -0.046516452 0.34204963 0.36580518 -0.77888054 -0.6887193 0.3732905 -0.06971121 0.5407237 -0.29560128 0.7774985 0.32160845 0.48271862 -0.086979635 -0.4722887 -0.47388548 -0.6495945 -0.14622197 -0.750186 0.73734754 0.69555074 -0.30885237 -0.05680728 0.15037541 -0.71286356 -0.6046513 -0.9002866 -0.2569216 1.0313314 0.2229829 0.8549019 0.22229229 -0.10092911 -0.12050233 -0.46426466 0.34902242 -0.7641436 -0.118251 0.38970456 0.25776705 -0.56631273 -0.20185165 0.1101219
('하는','Verb') -0.11143481 0.6002481 -0.8809463 -0.031550292 -0.27336958 0.03806844 -0.63377094 -0.26301286 -0.7789007 0.61186725 -0.26434496 -0.045615893 -0.06657572 -0.20036627 0.52456063 0.024617327 0.14164558 -0.35350835 0.27531552 0.13007288 0.5165499 0.22890684 0.971501 0.3168033 0.6783089 0.9372817 -0.5029356 0.85399437 -0.7555751 -0.70009387 0.11069526 -0.020351253 0.23888452 0.8787372 -0.4347342 -0.22673796 0.65516156 -1.1316543 0.43192828 0.29998538 0.03469592 -0.25322565 0.61812854 0.6567109 0.37891352 -0.53893596 0.6938417 0.5283722 0.37914032 -0.54755497 0.35148767 -0.16970627 0.15336111 -0.3047452 0.12323939 -0.44749087 -0.57094264 -0.6204563 -0.7709617 -0.6884619 -0.5364845 -0.32261243 0.9697553 0.8785541 0.5719689 0.7543871 -0.6410403 0.6976587 -0.026300315 0.4684967 0.009165093 -0.05326526 -0.8155198 -1.1469786 0.37596446 0.24346091 -0.25132445 -0.7525025 0.034645524 -0.49827063 0.09443587 0.83022314 -0.7216324 -0.3007615 0.24389358 -0.35269627 -0.467104 -0.42474788 -0.8215659 0.25565422 -0.19994198 0.19527867 1.1806204 0.42205185 0.13709942 0.5966391 -0.45054972 -0.08081223 0.34921283 -0.609598 -0.38202143 0.17002317 -0.86932653 0.7715711 0.8567995 0.006102846 -0.37984404 0.5926656 0.69907916 0.6124174 1.170496 0.6152621 -0.6120023 -0.80939925 -0.69006294 0.5691173 -0.9038846 -0.8708034 -0.21177492 -0.85167634 -0.9649853 -0.15556392 0.6925711 0.56725836 -0.97593904 -0.334449 0.7821109 0.6959467 -0.715305 -0.07975023 1.0471244 -0.37017816 0.7589148 0.40763628 -0.6332226 0.19667156 -0.3604092 0.27319118 -0.025709148 -0.36154082 0.4610453 0.5162306 -0.2944242 -0.72653645 -0.010988854 -0.95555115 0.3224648 0.3320146 1.0290484 0.26196235
('뒤','Noun') 0.30541494 0.6462777 -0.9938771 -0.027758861 -0.06040202 -0.4739696 -0.33528295 -0.4681545 0.6722217 0.40013012 0.5404523 0.19108646 0.6311753 -0.9366206 0.2982088 -0.8901583 -0.9920239 -0.28242168 0.9794263 0.013651494 -0.6137601 -0.09021436 0.6299628 0.15560588 0.042175595 0.83095455 0.91263694 0.3054172 -0.033229377 0.5678336 0.08327238 -0.48801792 -1.0481766 0.73100954 -0.87791765 -0.55438435 0.95559067 0.46389163 0.73118234 -0.53958887 -0.49297565 -0.42169705 0.5909748 0.6530149 0.26134875 -0.11285664 0.08594777 -0.28894174 -0.102714926 -0.9204968 -0.33431396 0.24655387 -0.64764225 0.14939947 -0.30118302 0.5019233 0.39732257 0.26571563 0.7369191 -0.3474108 -0.326442 -0.56423855 0.73232156 0.07508941 0.6006025 -0.39890334 -0.31946272 0.79533464 -0.5629208 0.47867474 -0.7096355 0.5255324 -0.6602117 -0.564597 0.9925187 -0.09625154 -0.9697526 0.5744415 0.5522949 -0.6935705 0.16832404 -0.10066003 -0.3258347 -0.9605879 0.2720137 0.5759176 -0.25619143 -0.26823622 0.0024048635 0.02097276 -0.7831549 -0.15482818 0.81903267 0.8775073 -0.99453807 -0.4358803 0.44433892 -0.5105249 0.68625134 -0.9318575 0.08425852 -0.1293468 -0.26491517 1.0303549 0.97086585 -0.6302795 0.7567807 0.73151934 -0.32687536 -0.36967528 0.2381284 0.93470293 -0.5374726 0.6320447 0.52724826 0.038631313 0.04750466 -0.3544912 -0.50197047 -0.13107798 0.11745589 0.09208189 -0.40496153 -0.27575517 -0.14477946 -0.6799328 0.5701978 0.6616389 -0.86259955 -0.30384716 0.9951285 -0.51440656 -0.45017633 -0.9115008 0.9555221 -0.39251915 0.043090433 0.3020979 -0.683114 -0.8065922 -0.90836513 0.8992177 -0.7395472 0.61092967 0.111992925 -0.38215378 -0.10782122 -0.94492245 -0.7190291 -0.66735715
('벽','Noun') 0.26942527 -0.72775483 -0.740456 0.24750938 -0.6233505 -0.81827277 0.0871555 -0.12553184 0.20192711 0.83112496 0.6336564 -0.8222717 0.50034463 0.116459444 0.9286069 0.8145371 -0.8177556 0.38951603 0.47228214 0.656892 0.010289332 -0.20557067 -0.25175363 -0.874168 -0.40102777 -0.49275655 1.0143771 0.43701515 -0.061545018 0.40405375 0.6519176 0.20532013 0.5288335 -0.39344072 0.54774815 -0.7532025 0.81501293 -1.1078788 0.7406044 0.7152844 0.063836865 0.77894604 0.06928026 0.094152205 1.0697321 0.26410067 -0.79318583 -0.6931989 0.39809477 -0.87189937 0.24341944 -0.2647059 -0.15813714 0.17502843 -0.64394826 -0.116781555 0.8530235 0.3498839 0.7025493 0.34561443 0.7390185 0.0099488115 0.5736092 -0.68793154 -0.3936577 0.23821145 0.018595561 -0.6347989 0.4112987 -0.39294693 0.06855762 -0.8435175 -0.01607203 -0.36761934 0.57630396 -0.9409636 -0.27659136 0.03419814 -0.39725822 -0.41734782 -0.5050502 0.39245397 -0.5265829 -0.5162672 -0.08306899 -0.91164136 0.43176508 0.40743706 0.037630074 -0.0407066 -0.47212297 0.5163048 0.7876741 1.1708993 0.2251969 0.5133743 0.3838527 -0.28019983 1.0422876 0.6171316 0.69162536 0.081724584 0.60120517 -0.50077057 0.32711458 0.07673278 0.42849237 -0.043632958 0.3046009 -0.12302976 0.43175042 0.4116241 0.21678242 0.05886197 -0.42455298 -0.6073052 -0.84517884 -0.5024517 0.68557924 1.0279161 0.940656 -0.4004096 -0.66736084 0.44154474 -0.8497458 -0.73424107 0.80352175 -0.17110378 0.3061005 0.2367182 0.5102688 0.5783611 -0.6951952 0.28895283 -0.25362086 -0.5462949 -0.6386773 0.3534383 0.7146508 -0.7943016 -0.26915744 0.70537484 0.3821497 0.114214 0.2408212 -0.6112416 -0.25847688 -0.49613962 -0.08474245 0.90437055
('날','Noun') 0.8126375 -0.28565675 -0.50301 -0.45094624 0.8238812 -0.79987645 0.15560329 0.82387835 0.8663702 -0.12734246 -0.23635969 0.39142346 0.42937332 0.3198334 0.2948218 -0.5500068 -0.409187 -0.57138264 0.2632138 0.6087676 0.29098815 -1.1071975 -0.44598487 0.37262848 -0.23630819 0.12864353 0.6537229 -0.20854427 -0.6300564 0.35823435 -0.2747064 0.6805768 0.6428936 0.007093156 0.41329107 0.3964594 1.0106845 -0.829753 -0.44325083 -0.13969363 0.54208463 0.9088865 -0.84732884 0.5349987 -0.29611 0.4481118 -0.91716397 -0.54403144 0.9587221 -0.6621707 -0.7073356 -0.77330685 -0.8131951 -0.80116546 0.08399462 0.04334554 0.47784868 -0.3940534 -0.50028527 -0.355262 1.0981536 -0.050774444 0.045268707 -0.8322284 0.22884478 -0.06467041 -0.29698062 0.25446138 -0.07057528 -0.2386941 0.62323236 -0.37571517 -0.17406182 -0.92749596 -0.036819126 0.7995127 0.18725914 -0.62512636 -0.28805888 -0.41645053 -0.18222797 0.99339086 -0.9648853 0.06310713 -1.2114166 0.91241807 0.7190675 0.62406635 -0.469355 0.4979618 -1.1147156 0.20698403 -0.2963973 0.10533262 0.7201759 0.12336227 -0.37339768 -0.6771931 0.8382764 -0.89562535 0.89660287 -0.6786583 -0.08033671 -0.49121016 -0.40676653 0.016523605 1.1140202 -0.33898 -0.3206021 -0.7619513 0.33787793 -0.35862848 0.1325294 -0.36563987 0.37034154 0.28733122 -0.3827763 -1.0367436 0.26598272 0.75380903 -0.28353274 -0.5310941 0.9181444 -0.8606168 0.67552173 0.85252434 0.8272579 0.26463237 -0.55023247 0.58942306 0.08261898 0.6181069 0.15424858 0.046044163 0.59567183 -0.5315693 1.0449147 -0.49041188 -0.7774619 -0.534523 -0.9507258 -0.4520042 0.5257861 -0.43489024 0.3662882 -0.8376832 1.0264677 -0.907144 0.8102234 -0.6213911
('년','Noun') -0.13449396 -0.67813915 0.012405254 -0.335572 0.040346242 -0.8122207 0.22373195 -0.0946896 0.3121216 0.12445577 -0.6646351 -0.5761519 -0.6321563 -0.7317155 0.23879755 -0.53938127 0.34066454 0.41476554 -0.127071 0.69105804 0.3679925 -1.0281509 0.6437318 0.5137626 -0.31489325 -0.38918903 -0.032115158 0.14894113 -0.76850677 0.049118396 -0.83951247 0.2727008 -1.0453253 -0.7704713 -0.84453946 -0.23564972 0.7343393 -1.0492808 0.7188632 0.5683761 0.7829497 0.08122229 -0.034093995 1.0728383 0.338092 0.0020036902 -0.17889525 0.55533385 0.32592645 0.7823797 0.73967683 0.1898022 -0.54794586 0.8686673 0.66908133 -0.07783968 -0.07186768 -0.14555855 0.013092068 0.181931 0.2822112 -0.60885525 -0.36815006 -0.18992071 -0.16835298 -0.39632484 0.5276929 -0.95159847 0.5844883 0.8228835 0.30282092 -0.43654186 0.34329772 -0.22126575 0.12041434 -0.55214685 0.64385736 0.7833909 0.026519043 0.79588026 -0.67151386 0.9480824 -0.89027476 -0.37232766 0.06837455 0.8852856 -0.76509964 0.68206835 0.7298866 0.9947813 -0.14891036 0.54466236 1.0999016 0.14202265 0.7411044 0.13307862 -0.40638176 -0.86850697 0.45692033 0.23534784 -0.94896585 -0.24324176 0.13742083 0.3335849 -0.313268 0.30019715 -0.18187931 -0.71634036 -0.37234032 -0.25060982 0.7056165 0.41621232 0.43067777 -1.080476 -0.7414082 1.0307097 -0.6891055 -0.30845916 -0.19961593 0.8492138 -0.4270898 0.21004646 -0.504002 -0.7517961 0.83569366 0.48760682 0.29153278 -0.6190559 -0.69010687 0.039081108 -0.54705364 -0.6663961 -0.08934996 -0.42616722 -0.2601285 -0.32038242 -0.7250817 -0.2289101 0.08113231 -0.6371542 0.2750534 -0.8706199 0.41732818 -0.6506574 -0.4749336 0.9172075 0.8055223 -0.5087147 -0.6644246 0.24869102
('자신','Noun') 0.37691367 0.13819504 -0.9954435 0.22229923 0.90954953 0.6430694 0.08080509 -0.7990904 -0.66591555 -0.03860147 -0.6017542 0.6985043 -0.71191233 -0.5879201 0.27749643 0.72310764 -0.9773299 -0.54183567 0.15643968 0.4867067 -0.72919166 -0.9456942 -0.42210886 -0.13037054 0.30801865 -0.40851772 0.671276 -0.12368061 0.16002597 -0.6198886 -0.05703767 0.18333557 -0.4921257 0.5542087 0.86956257 0.5680897 0.8845088 -0.99478376 -0.174881 -0.11316964 -0.71776193 0.65705264 0.49498764 -0.108417764 0.61381817 -0.651824 -0.27650693 -0.9139199 0.5499839 0.5784075 0.013675762 -0.14003403 -0.3653049 -0.26040718 0.84827846 0.21818493 0.4521568 -0.75983155 0.8877156 0.76681393 0.525256 -0.10433266 -0.6591052 0.6246914 -0.7341773 -0.08885334 -0.8136838 0.25012514 -0.14872481 -0.7060077 -0.7688345 0.16982086 -0.8232894 -0.74407715 -0.76451683 0.61459017 -0.3697076 0.43688366 -0.9065739 -0.34343922 -0.30280143 -0.3319758 -1.1594507 -0.9360402 0.7790027 -0.42514902 -0.9025722 -0.10395821 0.13670658 0.21521522 -0.08701742 0.19380167 -0.21862786 -0.48992217 0.44175458 -0.5341773 0.4067413 0.4430932 -0.59491044 0.682571 -0.26617962 0.10760952 0.2681064 0.59066904 0.39506355 0.94695693 -0.83796376 -0.9233727 0.24520682 1.0543734 0.35210976 -0.5038928 0.4856241 0.15973355 0.011258515 0.7377821 -0.12245057 0.25799635 -0.6450848 -0.9304856 -0.6942381 -0.27909258 0.8701017 0.63394254 0.61276084 0.38396278 -0.0027156235 0.6733837 0.5737601 0.58199435 0.03895557 -0.8841091 0.100257434 -0.41132537 0.89990854 0.17602202 -0.6685686 -0.93766433 -0.09227498 -0.097586595 -0.8786486 -0.34793666 0.51182365 -0.4753237 0.055277556 -0.19646433 0.8499617 -0.9015954 -0.35069805 -0.80531406
('지금','Noun') 0.014402149 -0.30562183 -0.08659777 -1.0910319 -0.5831412 -0.3490716 0.8699015 -0.8282435 0.61286217 -0.041047335 -0.44191074 0.41445187 0.23799682 -0.8956579 -0.29260918 -0.65464514 0.41786554 -0.39667305 -0.21220231 -0.71799546 -0.86553377 -0.12268386 0.2492578 -0.12710333 0.9604427 -0.57489383 0.22924682 0.6582629 -0.5071877 0.99807036 -0.8607911 -0.9237866 0.31728953 0.16145146 -0.46915025 0.11842451 0.137948 -0.74871576 -0.8104867 -0.1730097 -0.6344416 0.7515342 -0.6869468 -0.62736076 0.12503086 -0.1342771 -0.3643991 0.8523821 0.19788909 -0.56347436 -0.10187821 -0.083295904 1.0088947 -0.02466471 -0.49068296 -1.124167 -0.54739904 0.11375209 0.30014935 0.88981915 -0.307433 -1.117226 -0.090573624 0.44788843 -0.980564 0.8250346 -0.7553108 -0.30472443 0.94121146 0.043290343 -0.6598216 -0.7061593 0.46885756 0.4821832 -0.74372685 -0.28893372 0.63184255 0.09220289 -0.1420698 0.3535376 -0.454683 0.46672976 0.25143275 -0.3115325 -0.90919846 0.6901239 -0.6366639 -0.068410985 0.16448002 -0.35225886 -0.16991372 -0.26134855 0.81416297 -0.6542345 -0.24418575 -0.38016248 0.6564864 0.63886464 0.011572349 0.3130344 0.81224257 0.17317963 -0.3058483 0.61452496 0.47041675 0.120074466 0.84583026 0.5918023 0.083641246 0.56179005 0.61928475 0.5913701 -1.0202634 0.80215055 0.3553153 0.24623555 0.25588048 0.13486654 0.7627559 -0.7544488 -0.7020856 0.47550994 1.2250187 0.3784437 -0.46171764 0.49044433 0.7753887 -0.20180695 0.05009233 -0.715462 0.8529218 0.22493668 -0.28786856 0.41316053 -0.9439851 -0.049895883 0.6831948 0.03788464 -0.41787165 0.90973043 -0.47650692 -0.9492332 -0.4284486 0.14343354 0.5770002 -0.8099778 0.054345038 0.48417708 -0.44550598 -0.5384261
('형','Noun') -0.081046924 0.51096916 -0.51590484 -0.9916211 -0.22149348 -0.67487866 0.10200515 -0.4432086 0.22322217 -0.075567245 -1.3868247 1.0291187 0.13986567 0.68958884 0.34805143 0.24046816 0.23370942 0.441788 -0.14285684 -0.9781992 -0.35107505 -0.23800859 -0.5560829 -0.5941753 -0.01219321 0.45355734 -0.62496144 -0.8498462 -0.07631901 0.9410004 0.5174303 -0.571102 -0.10210966 -0.8028117 -0.2944717 0.11065817 -0.24530298 -1.2210683 -0.99188536 -0.10723251 -0.38688776 0.7391479 0.34352386 -0.2538148 -0.4885919 -0.05328426 -0.5208082 0.3982478 -0.6198267 -0.38109156 0.8985215 -0.37623528 0.7883312 -0.20187755 0.31725505 0.013679509 0.4017098 -0.67219454 -0.42738506 -0.68150765 -0.49829683 0.5791247 0.028700417 -0.0074898456 -0.8954732 -0.5611507 0.21162443 0.60501444 -0.5958533 -0.9655575 -0.059474412 0.55131036 -0.5694467 -0.40799335 -0.77774566 0.4182567 0.4715999 -0.7314725 0.49008736 -0.74437624 0.3320606 -0.76024157 0.06743814 -0.50977284 -0.7989139 -0.07267283 -0.8570826 0.5015905 -0.13243711 0.5062524 -0.29481182 0.88895744 0.56872463 0.6169305 0.18160929 0.43224856 0.5791042 0.69025505 0.6153756 -0.10261926 0.82671636 -0.6314585 -0.7022121 -0.7219035 -0.3053825 -0.7489429 0.012063577 -0.4929599 -0.71705765 1.004585 -0.019463386 -0.06551767 -0.087493815 -0.36093476 -0.1738952 -0.57665503 -1.0015891 -0.22546445 0.5131251 0.22078931 0.5068302 -0.27988374 0.73084474 0.76960176 0.038727902 0.1380549 -0.49356169 -0.1417501 0.24945672 0.22287855 0.776885 0.78672504 0.39398557 0.03907461 0.24103798 -1.0223212 -0.41396257 -0.3460453 0.48114586 -0.43593475 -0.088829406 0.76445985 -0.67454517 0.122953705 0.11744712 -1.0198109 0.29571086 0.53251606 0.23662613 -0.9606578
('아내','Noun') -0.15924793 0.7689734 0.8482859 -0.0021886996 -0.2769913 0.112981826 0.24637525 0.39805812 -0.8490011 -0.41525638 -0.66111386 0.020789213 -0.9919404 0.090963006 -0.51254493 0.99083817 0.14775896 0.3442046 0.1214615 -0.74510276 -0.40667096 0.49477652 -0.44951898 0.22109196 0.6194502 0.09531945 -0.08755801 0.47667357 0.7186612 -0.40027025 0.69009316 0.4455678 0.0045776423 0.17625563 0.56552875 0.3733826 1.0238638 -1.0888277 0.62415767 -0.23627718 0.7038812 -0.87916404 -0.9955704 -0.6177418 -0.43685997 -0.91719514 0.09596891 -0.18785948 0.6464093 0.90833825 -0.5763831 0.6801941 -0.78307176 0.830191 -0.8405735 -0.68482167 0.18672957 -0.14914684 0.26429102 0.19403578 -0.17005682 -0.52384233 0.1776911 -0.2543385 -0.41590032 1.1253852 0.5657096 0.47794935 0.95475566 -0.50498456 -0.59861135 -0.9222359 -0.62101454 0.68125176 -0.8812894 -0.31154466 -0.6362651 -0.68743575 0.27039996 -0.6094033 0.9179937 -0.13050947 0.09782345 0.7479069 -1.0763509 -0.653283 0.3755366 -0.8859966 -0.29298508 -0.06310535 -1.1802818 0.02252291 1.0962517 0.067966364 0.43089682 -0.05149226 0.55848235 -0.78574145 0.5799223 -0.5595006 -0.6081075 0.6733161 0.9075935 -0.9293155 0.10471045 0.9366311 -0.79090774 0.41812274 0.3218863 0.8569985 0.371653 -0.0042841597 0.83335084 -0.6346327 -0.7068242 -0.76857734 -0.98164374 -0.6590865 0.27000794 -0.70875865 0.53433084 0.71935165 -0.45375374 0.7679015 0.51907516 -0.18124942 0.9118591 -0.067820065 0.53896195 -0.7560586 -0.012047945 0.08219605 0.07587475 -0.26136962 0.8389266 -0.6251295 -0.8159431 -0.041194823 0.043341532 -0.65619564 -0.07942675 0.4701438 0.58614653 -0.7411889 0.8529103 0.59867865 0.850026 0.017605893 -0.6211831 -0.27336195
('시간','Noun') -0.1285166 0.75537056 -0.43813264 -0.79221976 0.7534231 -0.8122425 -0.30393383 0.72887236 -0.7054614 0.66427076 0.40055934 0.57425565 0.113606274 -0.084618926 -0.101686 1.049777 -0.6268731 0.42035264 0.4542337 -0.7209499 -0.53373104 -0.38518107 -0.45138064 1.0734234 0.6800683 0.69337475 1.0080624 -0.66977924 0.16314723 -0.7691115 -0.67979723 -0.12867936 0.60831153 -0.23842815 0.05861715 0.9413546 1.014084 0.68647563 -0.703959 -0.41655082 -0.3951948 0.7947531 -0.5568959 -0.20422097 1.1327646 0.7615629 0.19252142 -0.4833711 0.37978426 -0.09154617 -0.85941696 0.040690716 0.33179623 0.6081994 -0.45190713 0.37975067 -0.16682743 0.49039647 0.67565715 0.75851697 -0.6148134 0.43873 -0.8829744 0.03866648 -0.343791 -0.26245677 -0.053663354 0.5060485 -0.27227256 -0.47739688 0.86245203 -0.95400536 0.021035518 0.31538406 0.5824835 -0.3477385 -0.7714759 0.5708559 -0.9038046 0.02775669 -0.44619632 0.7283394 0.56117755 0.27794525 -0.3553931 -0.021843778 -0.82805234 0.74103695 0.41904327 -0.15862727 0.5657081 0.83089113 -0.1746911 0.77850354 -0.5202015 0.2789427 0.89011675 -0.3960541 0.8816356 -0.7647029 -0.88879377 0.9134645 -0.36323896 0.86128336 -0.36835092 0.7610746 -0.09453196 -0.27564856 0.043364987 0.98384583 0.98877645 -0.6412701 -0.034364413 0.080720685 -0.078007996 -0.88048697 0.15510747 0.70818794 -0.46818063 -0.7076902 0.43542993 0.33375025 0.8981664 0.05370837 -0.6031824 0.25278085 -0.6872952 0.0038470482 -0.99089473 0.53019625 0.8392285 0.14412218 -0.9908406 -0.15316656 0.6608651 -0.5496854 0.6744179 0.49401405 -0.30773923 0.29050624 -0.2049506 -0.9811863 -0.6689565 -0.118628494 -0.13842812 -0.6576153 0.3452916 -0.9476329 -0.052604936 -0.5823921
('머리','Noun') -0.3574439 -0.5178146 -0.9720069 -0.6939107 0.5808752 0.35632262 0.38255888 0.05966945 -0.172564 -0.53778595 -1.000292 0.4901493 0.3221634 0.136666 0.43160468 0.21839188 -1.0632111 -0.009538476 -0.6433349 0.23996194 0.7531902 0.052209258 0.54025286 -0.4226598 -0.74324554 0.6313898 0.2918725 0.8490741 -0.42599258 0.98313487 0.42266703 -0.31292027 0.8603815 -0.34612358 0.47254375 0.073920585 -0.046991013 -0.0031409115 -0.22968706 -0.83442473 -0.12971857 -0.7537127 0.08747184 -0.82876617 -0.07555203 0.56931084 0.45602423 -0.7590819 0.52901375 0.40446296 -0.042881317 0.7909947 -0.19668852 1.0360023 0.8207498 -0.64461416 -0.43041885 0.106698945 0.29533747 -0.6630839 -0.27022165 0.6357385 -0.4953314 0.16617984 -0.49370986 -0.1578945 0.19139652 0.39599314 0.59065497 0.35215864 -0.43627787 -0.8269211 -1.0148131 0.11255079 0.62998694 -0.64857864 -0.34887743 -0.3841478 -0.33710173 0.9023539 0.11756688 0.8632384 -0.5956146 -0.013885127 -0.28176448 -0.20018426 -0.84088933 -0.3813636 0.2939836 0.6533771 -0.76594 -0.05236749 -0.62658393 -0.2580039 0.69150126 0.23041174 0.39864972 0.8465776 -0.09832577 -0.21295272 0.86256874 0.93499285 -0.49281326 0.9641808 0.5786608 -0.46060005 -0.4638822 -0.8250934 0.3546171 0.82120955 -0.0952725 1.0299667 0.763779 0.36714256 -0.101861686 0.55141026 -0.3005446 -0.9269109 -0.05770912 0.28050303 -0.02401605 0.94074523 -0.8087391 -0.8382801 -0.8974278 0.7503337 0.51631224 0.10982086 -0.25730157 -0.6308314 0.1948307 0.4015625 -0.7776653 -0.24372149 -0.6948206 -0.73817575 -0.6441085 0.034368917 -0.10034129 0.41543123 0.61726207 0.53603137 0.10390081 -0.48296875 -0.1499694 0.88095856 0.5336678 -0.17429416 0.9185997 -0.902108
('짐','Noun') 0.72896063 0.021450503 0.7694 -0.75678986 0.8401028 0.41566417 0.48492333 -0.4492008 0.7540854 -0.45328018 -1.0991836 0.14310473 -0.4831824 0.24616191 -0.13355786 0.15195966 0.79023415 -0.7752973 -0.40692115 0.045869663 0.5909514 -0.77543294 0.4670756 0.12374577 0.59933746 -0.56352144 0.25363687 -0.43516165 -1.0891159 0.3807488 0.710866 0.39631608 -0.20238881 0.53504443 -0.121540695 -0.09108093 -0.5471331 -1.2248982 0.4603732 0.7974162 0.06598308 0.97703004 -0.8133383 0.22685702 -0.49174294 0.9846807 -0.92913157 0.80761546 -0.6407013 -0.60824484 -0.72395104 0.26737234 0.8879202 -0.6030066 -0.8684262 0.74623936 0.23578562 0.53170955 1.0389134 0.06360109 -0.6636508 -0.14649716 -0.8256691 0.44543415 0.69250286 0.29713294 0.53148836 0.68652177 0.06857437 0.06259072 -0.04008177 -0.044503834 -0.67382455 -0.5085073 0.46385857 -0.5995978 0.20291828 0.39152277 -0.8908873 0.5106642 -0.32154778 0.6574594 -0.43653345 0.82612723 0.67192507 -0.060693085 0.019366398 -0.055975255 0.26846272 0.39299625 0.05445918 -0.47494507 0.94942284 -0.35574722 0.55541456 0.8596457 0.46799454 0.1674546 -0.041392405 0.23045358 0.8784807 0.17182994 -0.81333053 -0.04768513 -0.7071121 -0.89825135 -0.8808497 -0.17587867 -0.44242114 -0.78573006 0.4855263 -0.5901301 0.7530748 -0.76615167 -0.2562135 -0.98475647 -0.7536668 -0.06707896 0.7454092 0.1458088 0.08452055 0.2176062 0.7041411 0.72852105 0.1466096 -0.02936051 -0.08068441 -0.07899149 -0.31830427 0.44253558 -0.7487269 -0.42750198 0.6920439 0.4110763 -0.1533091 0.5056266 0.20921245 -0.49878946 -0.61199397 0.96717906 0.07174834 -0.0025055383 -0.5700707 0.16609134 -0.59788096 -0.32854626 0.092962116 -0.2610031 0.22549497 0.38451833
('가방','Noun') -0.3085891 0.55635697 0.85835505 0.20990182 -0.5410199 -0.4849192 -0.71382564 -0.81660926 0.32780978 -0.54758334 -0.83647346 -0.24898121 0.18395922 -0.9379314 0.83621466 0.7783668 0.036910135 -0.06331723 -0.15337531 0.30176663 -0.53272337 0.2614053 0.18951657 -0.16398658 -0.83168674 -0.93123096 -0.13904232 0.76482606 -0.6448919 0.4959497 0.004172717 -1.1822321 -0.32092148 -0.40886268 -1.1566298 -0.38451356 0.48346502 0.4595771 0.2048207 -0.1594887 -0.611052 -0.38744378 0.60476863 1.0148634 1.069714 0.229293 0.56389683 -0.64535105 -0.16651687 0.42077807 -0.64689934 -0.87833595 0.22506058 0.2975441 0.8545506 0.601759 -0.6707888 -0.24912672 -0.8018046 -0.94461095 0.18968922 -0.7012214 0.74548906 0.5364471 0.044137355 -0.6162652 0.29385778 0.3288379 -0.6339742 0.7693762 0.07853326 0.75845456 -0.012539213 0.37266776 -0.43182224 0.42100886 0.73756236 0.20039499 0.59314513 -0.8443925 -0.8165406 0.5572206 -0.6116469 0.3589101 -1.1870416 0.8015609 0.4775807 0.48630688 -1.1720903 0.8100912 -0.98366493 0.052170478 1.1523696 0.2704578 -0.607063 -0.09817703 -0.89680696 -0.51415086 0.2641999 -0.89389366 0.7111076 0.95858204 0.19486704 0.07041058 0.20167989 -0.27862424 0.9252359 0.2447744 -0.5414934 -0.33137295 0.27082756 0.6522489 -0.12071961 -0.9479936 0.29133245 -0.14521383 0.19189353 -0.9416211 0.105665185 -0.50080484 0.3149887 -0.8107358 -0.6262288 -0.76991165 -0.56969017 -0.56498903 -0.30718532 -0.79200244 -0.44742432 1.1064937 -0.5677543 0.31881547 0.8927352 -0.46949217 -0.053069446 -1.1279448 -0.75631565 0.15067488 -0.7049047 0.43292674 0.51606023 -0.00921503 -0.45126325 0.5089721 0.29951784 0.39471787 -0.31405663 0.45340747 -0.5908191 -0.9423474
('솜다리','Noun') 0.32418668 0.4337888 0.6791613 -0.4481097 0.85547894 -0.9588445 -0.9125282 0.5645022 -0.7363473 -0.17433222 -0.8496807 -0.45951787 -0.35569423 -0.5423903 0.66790724 0.24155322 0.36710277 0.18728846 0.66418666 -0.8846927 -0.30440298 -0.81722504 -0.32820007 -0.27421346 1.0201893 0.03861179 -0.5094348 0.4150773 0.33601615 -0.7647232 0.032945357 0.0153988 0.54415476 -0.47272533 0.846827 -0.14535089 -0.6454128 -0.75352246 -0.84172 0.7175566 0.40142825 -0.6254215 -0.2482548 0.43706048 0.6803372 0.71763885 -0.71240306 -0.837755 -0.88928103 0.28679186 0.11567126 -0.95980114 -0.1784609 -0.23678866 0.013695233 -0.9105341 0.25501657 0.77721864 0.5377308 -0.13567504 0.29567453 0.22428334 0.8230804 -0.34367004 -0.90836567 0.23487917 -0.07701662 -0.19929789 -0.4580514 -0.9348301 0.96205205 0.0023573388 0.6686679 0.16562721 -0.12636018 0.8945537 -0.090695776 0.44771343 0.39489537 0.9054668 0.78698057 -0.95921415 -0.9116789 0.069849975 -0.60681176 0.62790644 -0.66669697 -0.80458575 -0.53152937 -0.057279788 -0.1986485 -0.69680524 -0.15841463 -0.22823729 0.24309821 0.3120928 -0.78650725 -0.8700662 0.84030443 -0.1572488 0.34831756 0.907935 0.7115668 0.4715222 0.57313836 0.670539 -0.20029807 -0.43014085 -0.035861548 0.33440802 -0.48029098 0.19031022 0.9243396 -0.034371592 -0.28543273 0.71683997 -1.0069298 0.96134615 0.32852218 0.15326168 0.6159663 -0.30868888 -0.034020815 0.7939518 -1.04618 0.9085677 -0.9010786 -0.04859083 0.4317606 0.16473879 -0.5601422 0.49592966 -0.07585244 -0.3097655 -0.8111285 -0.7093772 -0.045823883 -0.15136217 0.3190546 -0.63880956 0.6469935 0.5263074 -0.75991637 -0.5452446 -0.7393433 -0.26771984 -0.31441116 0.72009647 0.45666537 0.9498523
('먼지','Noun') -0.10411133 -0.11847967 -1.0485858 0.44871286 0.44345316 0.8458137 0.11550503 -0.08860389 0.901701 0.2993478 -0.45947313 0.069980174 0.15227725 0.30854848 0.04130818 -0.38071537 -0.4087936 -0.1991129 -0.8701326 -0.58009243 -0.80969304 -0.7772269 0.5268589 0.6583853 0.6896907 -0.18247563 -0.47673526 -0.45857176 0.57361555 0.903362 -0.77955127 -0.42879668 -0.34043777 -0.6732316 -0.054204475 -0.8072499 0.81949645 -1.1365013 -0.67737436 -0.5249962 0.61765796 -0.9464209 0.9412476 -0.45207727 -0.08876888 0.33233142 -0.6003608 -0.792085 0.7956283 -0.49162257 0.22833885 0.8225825 0.75789917 -0.50158346 -0.76348877 -0.7154012 -0.4903492 0.06472548 -0.95950633 0.5477455 -0.6481746 -0.62443066 0.31541258 0.07181985 0.2031918 1.107382 -0.05478604 -0.17958756 -0.019582856 0.25168025 0.060107533 0.27862966 -0.7793338 0.3728301 0.10632341 -0.74131376 0.5687332 -0.123505645 0.6749941 -0.5539153 0.21933028 0.082509466 0.22913714 -0.21432647 -0.9417204 -0.6080031 -0.8315697 -0.9503736 0.15966403 -0.20681888 -0.18034565 0.49221116 -0.17655209 1.0943305 0.25037745 -0.10143246 -0.27171877 -0.5020785 -0.8472938 -0.41934523 -0.95481175 -0.48663804 0.7712294 -0.22771867 -0.16541727 0.9325464 0.32097077 -0.32250234 0.70350444 -0.10783975 -0.030619107 1.0975988 0.059556518 0.91677845 0.001810183 -0.39086005 0.07094198 0.8533055 -0.048631232 -0.45042866 0.27450302 1.1487207 0.50552523 0.5851431 -0.86280334 -0.38840026 0.8336137 -0.9371675 -0.82470965 0.0763816 -0.026555259 -0.66655713 -0.1537345 0.8627916 0.6967393 -0.97624546 0.7416818 1.0021063 1.0347861 -0.6456219 -0.14930572 0.27573463 -0.12597378 -0.74463594 0.7125436 0.2867185 0.98404634 0.26747075 0.8174219 0.8623144
('도','Josa') -0.64370155 -0.7338986 0.71148634 0.31903654 0.81160045 -0.6757099 -0.37061113 -0.36520588 0.7789904 0.84316224 0.43266237 0.8863131 0.447876 0.018262677 1.1317675 0.1817697 0.3200907 0.32762656 -0.21210508 -0.26810816 0.587723 -1.0573134 0.78278923 -0.882976 -0.89422905 0.41587266 -0.7320372 -0.10351131 -0.32125798 0.6299798 0.6127405 -0.19359916 -0.92266876 -0.7289421 -0.86648726 -0.2291756 0.45910567 0.91603136 0.4011843 0.26968732 0.34896046 -0.94604534 -0.9234208 0.75780374 -0.73927355 0.23086317 0.16342695 -0.8050428 0.14967212 0.4516759 -0.4551583 -0.5372658 -0.17463735 -0.6449207 -0.51868063 -0.14132454 -0.0009064623 0.7424514 0.11484648 0.05833688 0.042092476 -0.039271824 0.6099345 -0.61326844 0.9807994 1.0010113 -0.45380902 -0.1588057 -0.37340218 -0.35033566 0.4887525 0.6123109 0.5245653 -0.5645632 0.642247 -0.59791756 0.006004001 -0.016032325 0.12777242 0.65288585 -0.29528967 0.552304 0.8453616 -0.9124718 -0.32791817 -0.8080707 0.5813842 -0.044445917 -0.54311574 -0.22815605 -0.37131923 -0.6466035 -0.07553181 0.12729788 0.073588535 -0.45021695 0.74408036 -0.6191437 -0.74116796 -0.8702345 -0.47737822 -0.13212736 -0.032640193 0.859561 -0.7508759 0.26040134 0.3566134 -0.49878755 0.58461756 -0.23309913 0.8813773 0.9361593 0.5687444 -0.6336599 -0.89495647 -0.5662637 -0.62032247 -0.1634836 -0.107588135 -0.09452045 0.634982 -0.7052293 0.22232237 0.41538775 0.64366347 0.4701438 0.5475202 -0.23522791 0.43989724 -0.5000662 0.32809627 0.44787154 0.5252838 0.013645954 0.37394315 0.1175757 -0.36553952 0.80222625 0.81452876 0.40888622 -0.43176213 -0.74177974 -0.72070944 0.8003312 -0.63196754 -0.50627327 0.4390128 -0.17435427 -0.27723375 -0.8341633
('곽','Noun') -0.20793334 -0.090680145 -0.73271394 -0.7171238 0.3107793 0.96078527 -0.90848804 -0.5248125 -0.5177603 0.7080337 -0.6414344 0.40261588 0.43441927 -0.6814176 0.8817589 -0.13171911 0.23135059 0.43724927 0.4464726 -0.39240125 -0.21347512 -0.039149396 -0.62888485 0.29988435 0.5587433 -0.51913106 0.1737078 0.85592246 0.2867126 -0.15237357 0.76054347 -1.0329516 -0.7561128 -0.5532267 0.14759058 0.5581886 0.27262896 -0.27346572 0.5180725 0.41271374 -0.72013944 0.5058891 0.07281702 0.21626563 -0.31888962 0.76558477 -0.039805528 -0.18200667 -0.4432618 -0.36091867 0.72131515 -0.88882416 0.31744546 0.45156574 0.040645473 -0.07382824 0.21443051 0.801724 -0.12622574 -0.23080555 0.86248356 -0.057542015 0.5474071 0.4789871 -0.37859052 0.0473025 0.48583293 -1.0544107 0.0941332 0.32207623 -0.16472027 0.7805844 0.05667498 -0.7264884 0.6084048 -0.93907064 0.55211455 0.6015872 -0.24539801 0.34732533 -0.2881196 0.56056976 -0.70038843 -0.1317462 -0.9534143 -0.033738676 -0.6658417 0.7128956 -0.8359856 0.3230736 0.48374867 -0.45583797 -0.36667636 -0.13992874 -1.0200199 0.84670347 0.46706006 0.81640375 -0.7589242 -0.29880902 -0.9358399 0.69085467 0.57323015 -0.43443844 -0.5833668 0.38935938 0.22828746 0.03890095 -0.63004535 0.34507924 0.101642445 -0.83288866 0.4330578 -0.7100429 -0.5328571 -0.39610088 -1.296835 -0.7326621 -0.707845 0.18255596 -0.94129914 -0.557693 -0.82465845 -0.72726023 0.09677272 -0.547271 -0.9318855 -0.7266212 0.476999 0.5711451 0.96140784 0.04891496 -0.1693478 -0.18749765 -0.66164577 0.52284247 0.6659855 0.47429326 -0.2868939 -0.25057828 -0.68745416 -0.76778024 0.5228717 -0.27691555 0.59959334 0.05383224 -0.6198124 -0.9839407 0.28106502 -0.22297049
('안','Noun') 0.28122848 -0.61044234 0.29475677 -0.4574007 0.6651151 0.6638851 0.32482263 0.040098228 -0.2979285 0.62518996 -0.49379584 -0.3188726 -0.07000263 0.32584026 0.67264783 0.33546364 -1.0060432 0.9487343 0.30163398 0.7557354 0.07145264 -1.1792942 0.2696256 -0.13626559 -0.8730444 -0.42388183 1.1167573 0.94058436 0.20157823 -0.51806885 -0.11504226 0.40790132 -0.27792943 -0.82938474 0.19195695 -0.04046898 0.54007447 0.31596434 0.81645894 1.0794046 0.70053655 -0.5445189 0.78374165 0.022126066 0.18676017 0.24793252 0.3419055 -0.35061517 1.0863569 -0.20213422 -0.19261381 0.20768374 0.6599702 -0.7836456 0.24367075 0.3542217 -0.07930017 0.2882188 -0.4870993 -0.4346771 -0.4768086 0.3359709 0.16874164 0.13401234 0.79155856 -0.019845389 1.138935 0.6067124 -0.04078459 0.31926382 0.46357363 0.26947248 0.5641343 -0.5690717 -0.019902451 -0.037094977 -0.46411046 -0.9633639 0.1897081 -0.05124941 0.7190874 -0.5172487 -0.9413592 0.6777726 0.18873146 -0.8324958 0.14256969 0.7867474 -0.34953427 -0.0001969894 -0.1317563 -0.47395572 -0.43589857 -0.3936166 -0.29573584 0.87846744 0.7384683 0.053399354 -0.42242905 -0.511984 -0.427625 1.1106918 0.5641202 0.4200594 -0.62105465 0.8190229 -0.6857998 -0.7164101 -0.6273397 0.11678134 0.6215078 0.5270564 -0.72200245 0.4393616 -0.93687505 -0.5940423 -0.44342598 0.076802865 1.246601 -0.8970486 0.18796566 0.2028585 0.8309884 -0.91288215 0.34620348 0.020423155 0.5966757 0.40081006 0.40106255 -0.5959199 0.6918613 0.8394254 0.8870528 -0.0837672 -0.2496916 -0.42824996 -0.29693052 -0.008966135 -0.33935374 1.2548318 0.023443736 0.05394378 -0.17856833 0.90642077 -0.87981194 0.91987985 -0.49514326 -0.7126461 0.8994942 0.98112994
('길','Noun') 0.9138414 0.50973 -0.41923437 0.4447817 -0.38239914 0.8727629 0.16234343 0.94731194 -0.11261196 0.5036574 -0.49297708 -0.86604244 -0.5732105 -0.124744885 0.98088026 0.6008081 0.58489656 1.0118295 -0.50301504 -0.8484106 -0.32825518 0.64103216 -0.22883348 1.0354786 -1.0262312 -0.081671506 -0.018245539 -0.24222961 -0.73621583 -0.36341465 -0.9561263 -0.060697563 -0.10487114 0.10184747 0.43881226 0.23138398 -0.33096465 -1.2133632 0.26339152 1.0209272 -0.30829704 0.23660113 -0.7218895 -0.026265789 -0.030614039 -0.2911275 -0.87761945 -0.5330168 0.10751335 0.9745765 0.691084 0.7025179 -0.43061027 -0.2861559 -0.80382437 0.5071084 0.8214114 -0.02840577 0.80929285 0.4825347 -0.30768326 -0.3190205 0.19311734 -0.3126104 -0.97974825 0.58210915 1.1190263 0.6802381 -0.20850828 -1.0571011 -0.8496539 -1.0181981 -0.48573488 0.54357326 0.26089767 0.83106756 -1.0185623 0.9306042 0.53072065 -0.2625281 0.93942004 -0.7632109 -0.8504237 0.493961 -1.0264326 0.27459967 -0.045705825 -0.07861961 0.089297175 0.18631276 -0.109406546 -0.7306406 -0.6603763 -0.18939553 -0.9454877 0.68039167 0.08475063 -0.12532502 0.06753265 -0.35712337 -0.38135943 1.0252477 -0.8777927 -0.26977172 -0.39334688 0.2600221 -0.22594169 0.51641244 -0.43133208 -0.35509983 -0.48855448 0.7575644 0.34495613 0.4163134 -0.62144405 0.62042797 -1.2556728 -0.54915166 -0.28409386 -0.37431762 0.85145706 0.37631205 0.9284869 0.78046525 -0.57079774 0.7842562 -0.55628496 -0.92423576 -0.25496304 -0.39997095 0.8634803 -0.48469272 0.2517469 0.66902316 -0.2245833 0.21505062 -0.14681004 0.66253126 0.777344 0.19309187 0.9034074 -0.82384235 -0.29234576 -0.14056462 0.89217967 -0.6050238 -0.5630418 -0.5729263 -0.73978317 -0.011081679
